tree
version=v4
num_class=1
num_tree_per_iteration=1
label_index=0
max_feature_idx=28
feature_names=count_HIS count_CYS count_MET count_TYR aliphatic_hydrophobic_count aromatic_count propionate_stabilization_score has_CP_motif has_CXXCH_motif pocket_flatness_index score druggability_score number_of_alpha_spheres total_sasa polar_sasa apolar_sasa volume mean_local_hydrophobic_density mean_alpha_sphere_radius mean_alp._sph._solvent_access apolar_alpha_sphere_proportion hydrophobicity_score volume_score polarity_score charge_score proportion_of_polar_atoms alpha_sphere_density cent._of_mass___alpha_sphere_max_dist flexibility
feature_infos=[0:28] [0:31] [0:15] [0:12] [0:84] [0:28] [0:37] [0:1] [0:1] [0:452339.272] [-1.04:7.5259999999999998] [0:1] [15:2540] [0:5402.9979999999996] [0:1632.3330000000001] [0:3770.6750000000002] [44.356999999999999:19581.080000000002] [0:106.925] [3.4390000000000001:4.4500000000000002] [0.26000000000000001:0.84599999999999997] [0:1] [-44.332999999999998:99.5] [0:7.3330000000000002] [0:98] [-7:20] [0:88.888999999999996] [0.51500000000000001:30.628] [1.1519999999999999:73.293999999999997] [0:130.5]
tree_sizes=7804 7771 7778 7791 7890 7788 7855 7876 7834 7875 7972 7906 7908 7944 7991 7916 7843 7931 7836 7963 7844 7958 7859 7830 7851 7956 7994 7988 7834 7941 7925 7903 7907 7874 7818 7942 7901 7904 7870 7862 7955 7861 7911 7770 7852 7889 7723 7922 7768 7893 7835 7786 7755 7813 7682 7961 7787 7738 7678 7973 7902 7837 7770 7772 7924 7699 7777 7890 7669 7901 7845 7686 7869 7708 7836 7786 7757 7850 7706 7757 7754 7657 7810 7791 7748 7675 7657 7712 7761 7884 7699 7766 7669 7630 7657 7613 7707 7655 7581 7671 7628 7581 7487 7628 7386 7763 7715 7561 7509 7524 7769 7551 7525 7512 7729 7477 7610 7507 7562 7532 7604 7499 7569 7519 7535 7541 7580 7646 7378 7626 7527 7511 7488 7376 7473 7578 7571 7406 7275 7367 7377 7347 7376 7428 7379 7398 7449 7235 7491 7309 7353 7543 7215 7390 7285 7314 7299 7404 7433 7235 7342 7321 7327 7511 7437 7422 7286 7297 7369 7284 7426 7392 7293 7204 7326 7243 7217 7205 7252 7301 7211 7266 7202 7399 7142 7266 7223 7285 7380 7278 7346 7222 7327 7239 7263 7234 7339 7204 7292 7147 7257 7130 7203 7368 7205 7313 7119 7143 7238 7185 7185 7259 7323 7220 7216 7096 7242 7206 7112 7229 7188 7290 7310 7230 7193 7193 7193 7175 7161 7166 7158 7192 7142 7032 7191 7148 7228 7158 7161 7177 7118 7172 7167 7227 7182 7176 7191 7190 7188 7263 7228 7140 7117 7193 7194 7199 7191 7144 7208 7171 7029 7197 7099 7099 7076 7121 7111 7174 7164 7119 7140 7084 7118 7184 7238 7170 7079 7108 7137 7101 7121 7138 7176 7098 7203 7117 7140 7092 7059 7124 7071 7090 7119 7086 7147 7075 7102 7075 7041 7074 7020 7087 7124 7069 7059 7078 7084 7100 7119 7067 7123 7085 7157 7123 7053 7043 7028 7091 7096

Tree=0
num_leaves=73
num_cat=0
split_feature=17 5 16 1 0 0 0 1 13 22 5 2 0 5 4 28 10 28 26 22 4 5 7 4 7 10 0 13 4 13 20 7 16 1 5 13 10 0 17 10 28 26 4 0 4 19 19 13 4 13 17 28 28 5 12 13 28 28 20 10 13 16 10 22 4 4 4 28 28 16 10 13
split_gain=348.191 98.2832 102.73 66.5258 57.3105 28.0994 22.6712 38.665 17.4816 14.5243 11.91 11.433 10.4539 10.0998 10.0986 8.98075 7.74223 7.27742 5.5151 5.04403 6.28173 5.57979 4.88057 4.60859 4.08111 3.92949 3.80648 3.16923 3.03622 2.93809 2.68175 2.48971 2.44204 3.69954 2.36325 2.26691 1.96379 1.87409 1.6361 1.38523 3.46237 1.38507 1.36822 1.3002 1.26166 1.21446 1.18479 1.64138 1.93143 1.20217 1.08803 1.0086 0.988235 0.916845 0.82124 0.817687 0.754985 0.743036 0.696548 0.677039 0.676532 0.626526 0.406665 0.607307 0.418655 0.401252 0.364721 0.346221 0.331372 0.307137 0.282076 0.259967
threshold=46.053500000000007 3.5000000000000004 173.41750000000002 1.5000000000000002 1.0000000180025095e-35 1.5000000000000002 1.5000000000000002 1.0000000180025095e-35 219.50700000000003 4.0840000000000005 3.5000000000000004 1.5000000000000002 2.5000000000000004 12.500000000000002 14.500000000000002 0.11250000000000002 0.053500000000000006 0.030500000000000003 3.6695000000000007 4.7700000000000005 7.5000000000000009 6.5000000000000009 1.0000000180025095e-35 7.5000000000000009 1.0000000180025095e-35 0.23050000000000004 6.5000000000000009 106.89650000000002 15.500000000000002 25.371000000000006 0.95050000000000001 1.0000000180025095e-35 1430.1600000000001 4.5000000000000009 11.500000000000002 289.38900000000007 0.21650000000000003 1.5000000000000002 60.316500000000005 0.31450000000000006 0.13350000000000004 6.8345000000000011 11.500000000000002 1.5000000000000002 8.5000000000000018 0.43650000000000005 0.43450000000000005 326.72250000000003 13.500000000000002 986.2170000000001 48.679000000000009 0.067500000000000018 0.018500000000000003 7.5000000000000009 151.50000000000003 222.29850000000002 0.06950000000000002 0.064500000000000016 0.54250000000000009 0.50050000000000006 247.89850000000004 281.95750000000004 0.012500000000000002 4.6940000000000008 11.500000000000002 11.500000000000002 8.5000000000000018 0.11750000000000001 0.038500000000000006 140.97450000000001 0.41050000000000003 270.85800000000006
decision_type=2 2 2 2 2 2 2 2 2 2 2 2 2 2 2 2 2 2 2 2 2 2 2 2 2 2 2 2 2 2 2 2 2 2 2 2 2 2 2 2 2 2 2 2 2 2 2 2 2 2 2 2 2 2 2 2 2 2 2 2 2 2 2 2 2 2 2 2 2 2 2 2
left_child=1 3 15 6 13 34 -1 -8 17 14 12 44 -11 22 38 29 35 45 -13 20 37 42 57 -7 26 -25 46 -9 36 -3 39 32 51 58 -4 -12 -23 -18 43 -19 67 -29 -21 -10 -5 -6 47 -22 -49 55 53 -16 -40 -45 -54 -48 61 -2 -34 -27 -43 -20 -37 64 -64 -14 -57 68 -41 -31 -47 -53
right_child=4 2 5 11 8 23 7 27 9 10 16 18 65 -15 31 -17 19 30 56 21 24 28 -24 25 -26 59 -28 41 -30 69 -32 -33 33 -35 -36 62 -38 -39 52 40 -42 60 -44 50 -46 70 49 48 -50 -51 -52 71 54 -55 -56 66 -58 -59 -60 -61 -62 -63 63 -65 -66 -67 -68 -69 -70 -71 -72 -73
leaf_value=-0.38610975127505415 -0.19409351666533606 -0.095139572812818679 -0.34723274775503632 -0.30149805713702765 -0.12605440020926828 -0.25067179326495437 -0.34235396802971207 -0.20894567563275865 -0.057609078290493623 -0.16591017536598712 -0.14802763051052586 -0.24329179704259996 -0.0050859782356039752 0.00031495729265415269 0.010686676861201836 -0.20567325148121687 0.011003680432440547 -0.31519249851806708 -0.054902597047510597 -0.071430398012850435 -0.17447306013738156 -0.085944487122901037 -0.00043956574573301516 -0.028716248695026449 0.0115283441440539 -0.10777205210891523 0.0091243288670847869 -0.0053010670263727595 -0.0023154992620535424 0 -0.053041328462306581 0 -0.088848533504176166 0.025998063201487235 -0.039635557829166834 0.022887270891438112 -0.24535472143895726 -0.12315402304604796 0.025998063201487235 -0.02016356220862825 -0.26810473487364966 -0.13477532366913547 0.04180845277360111 -0.089460812774204451 -0.039635557829166793 -0.039874130639306102 -0.038051054625836536 0.012646489149658503 -0.12506078041933411 -0.033316444758540786 0.041693672393694085 -0.11979997158667967 0.0036104419908021767 0.023947666676677446 -0.11160339309438898 -0.084357929324749198 -0.078190487526041547 -0.34284841208515326 -0.22821971957180454 -0.21018958732057882 -0.025482332097272624 0.010608593531719043 0 0.011174965104856532 -0.09603534496692645 0.054073873483512162 -0.22652581963819593 -0.03496640293067084 -0.14967065011456715 0.0538457934536032 0.017205852500545221 -0.021846575971295537
leaf_weight=212.66582764685154 2.2145699113607362 0.58800756931304743 24.213385403156284 2.3795841038227068 0.6966528594493856 4.6549011766910535 17.477282166481022 0.70940664410591026 0.88629436492920088 1.9067415893077839 0.58479531109332983 0.83508872985839833 0.63064718246459994 0.59443208575248796 0.78086133301257987 0.69129909574985493 1.4125792682170897 4.1797266602516139 1.1270462572574618 0.57097077369689886 3.6686227917671301 1.7150538265705115 0.31532359123230058 2.0005868375301361 0.48364529013633628 2.8740321695804596 0.44635944068431754 2.4309802353382111 0.79789812862873066 0.61253963410854328 0.72011417150497514 0.81707642972469319 1.1792273968458178 0.37285849452018727 0.29507453739642997 1.1164339780807497 1.4017764925956724 0.62315191328525532 0.37285849452018727 0.35153868794441301 3.2434879094362259 0.86176230013370492 1.6022207736968992 0.45911322534084309 0.29507453739643086 0.53582642972469308 0.38775378465653076 0.98539812862873055 0.88094060122966766 0.4250396341085424 5.5299887508153915 0.54965096712112405 0.37178774178028096 0.54010944068431854 1.1216924935579298 0.8287594616413142 2.9539576321840286 12.4965403676033 2.5202567279338837 2.3402519971132278 0.96300756931304932 1.7097953110933302 0.48257453739643075 0.94811227917671204 0.47722077369689941 3.0009755045175552 18.941543310880661 0.66579152643680561 2.7919652014970779 6.5963830947875977 0.76275378465652466 0.6295764297246933
leaf_count=11519 99 24 1262 124 30 220 908 36 32 82 27 44 20 18 23 35 42 216 40 22 156 64 10 66 14 110 13 76 25 19 26 25 45 10 11 32 70 27 10 12 159 37 44 19 11 19 14 29 37 15 155 24 11 15 45 32 107 652 118 107 32 51 15 28 20 81 848 23 115 180 22 21
internal_value=-0.307387 -0.349213 -0.238605 -0.369086 -0.172003 -0.295149 -0.377288 -0.288324 -0.141971 -0.122124 -0.145279 -0.154429 -0.034224 -0.307807 -0.056306 0.00553326 -0.160523 -0.222006 -0.0891042 -0.171735 -0.18609 -0.0953735 -0.319993 -0.185377 -0.196072 -0.13195 -0.200133 -0.0861994 -0.146922 0.0337266 -0.24504 -0.125461 -0.141802 -0.175644 -0.344392 -0.04402 -0.178261 -0.0413803 -0.00179857 -0.254762 -0.203691 -0.0489261 0.00392978 0.0147365 -0.282823 -0.0645941 -0.203964 -0.143409 -0.060712 -0.217059 0.0279122 -0.052059 -0.060712 -0.0353588 -0.0856878 -0.220004 -0.0521761 -0.326351 -0.197626 -0.165986 -0.0938091 -0.0174927 -0.00795406 -0.0288122 -0.0635129 0.043167 -0.222541 -0.127943 -0.140307 0.0491842 -0.00741042 -0.0888485
internal_weight=379.295 289.275 44.8665 244.409 90.0193 36.3782 235.108 22.4424 74.3984 60.4506 44.3192 9.30055 5.53836 15.6209 16.1314 8.48823 38.7809 13.9479 6.62589 35.1717 29.0838 6.08792 15.0264 11.8698 27.0481 7.21487 26.5644 4.96516 3.91473 7.79693 11.9526 6.84951 6.03243 4.07234 24.5085 3.60914 3.11683 2.03573 9.28184 11.2325 7.05278 4.25575 2.17319 7.41551 2.67466 1.99523 26.1181 5.53496 1.86634 20.5831 6.52921 1.96009 1.86634 0.999223 1.49348 20.1581 5.7908 14.7111 3.69948 5.21428 1.82477 2.83684 3.02434 1.90791 0.959795 3.63162 19.7703 3.8093 3.1435 7.20892 1.29858 1.17923
internal_count=18730 15019 2034 12985 3711 1776 12608 1089 2932 2310 1757 377 183 779 553 258 1574 622 242 1452 1227 225 761 503 1158 283 1144 181 159 223 551 266 241 173 1273 122 134 69 287 525 309 145 66 221 135 71 1131 222 66 909 189 68 66 34 56 894 198 751 163 217 69 91 95 63 35 101 880 150 127 199 41 45
is_linear=0
shrinkage=0.078106


Tree=1
num_leaves=73
num_cat=0
split_feature=15 23 5 27 0 15 21 12 11 5 2 11 3 2 12 21 16 13 12 2 19 3 19 5 20 3 11 12 20 11 20 23 7 27 0 6 16 23 24 20 19 4 11 27 11 21 3 15 21 21 21 16 21 14 14 23 21 21 21 20 4 11 23 0 6 21 21 21 27 15 19 21
split_gain=138.112 27.9537 46.57 27.208 12.0936 10.9649 12.1569 9.45335 10.8279 8.29608 7.49913 6.6137 5.89219 3.96575 3.90153 3.56128 3.38208 4.4369 4.09006 3.38063 2.99267 2.85347 3.01271 2.84785 3.08669 2.77527 2.67237 2.47731 2.46093 2.40153 2.23559 2.04816 1.6954 1.497 1.45757 1.27294 1.26939 1.23359 1.21684 1.19006 1.15608 0.970013 0.94354 1.29458 0.938014 1.03413 0.894443 0.850528 0.803926 0.775485 1.29321 0.91491 0.764519 0.759378 0.660399 0.649521 0.587698 0.750838 1.0317 0.568951 0.563269 0.558296 0.802798 0.556272 1.64247 0.618134 0.788129 0.591421 0.51145 0.594709 0.503091 0.607365
threshold=127.23650000000002 1.5000000000000002 3.5000000000000004 24.667000000000005 1.5000000000000002 161.85150000000002 58.301500000000004 51.500000000000007 0.042500000000000003 12.500000000000002 1.5000000000000002 0.7875000000000002 1.5000000000000002 1.0000000180025095e-35 182.50000000000003 15.767000000000001 1003.9035 307.46850000000006 153.50000000000003 1.0000000180025095e-35 0.41450000000000004 2.5000000000000004 0.46050000000000008 7.5000000000000009 0.55650000000000011 2.5000000000000004 0.6715000000000001 194.50000000000003 0.75650000000000006 0.018500000000000003 0.42450000000000004 15.500000000000002 1.0000000180025095e-35 13.030500000000002 4.5000000000000009 14.500000000000002 721.43150000000003 12.500000000000002 3.5000000000000004 0.68050000000000022 0.38650000000000007 7.5000000000000009 0.96450000000000002 18.136500000000002 0.98750000000000016 36.081500000000005 1.0000000180025095e-35 283.57450000000006 43.897500000000008 39.016000000000005 44.548500000000011 1300.5420000000001 49.278500000000008 86.827500000000015 62.399000000000008 9.5000000000000018 18.343000000000004 21.674500000000005 21.528500000000005 0.58350000000000002 10.500000000000002 0.97550000000000014 10.500000000000002 1.5000000000000002 1.5000000000000002 22.293000000000003 39.016000000000005 17.409500000000005 20.973500000000005 294.77000000000004 0.45850000000000007 48.403000000000006
decision_type=2 2 2 2 2 2 2 2 2 2 2 2 2 2 2 2 2 2 2 2 2 2 2 2 2 2 2 2 2 2 2 2 2 2 2 2 2 2 2 2 2 2 2 2 2 2 2 2 2 2 2 2 2 2 2 2 2 2 2 2 2 2 2 2 2 2 2 2 2 2 2 2
left_child=1 2 -1 5 9 14 11 26 10 27 40 13 20 41 33 35 39 18 19 55 -8 30 -23 31 44 -15 -3 -5 61 -12 -17 49 47 -2 46 -6 -22 42 -14 -13 -9 -7 53 -44 -25 -46 -32 -33 -24 -19 -51 -52 -16 -20 -45 -18 -42 58 -58 -29 -43 62 -21 -35 -65 67 -67 -66 -26 -70 -41 -72
right_child=3 7 -4 4 15 6 12 8 -10 -11 29 16 38 25 52 21 17 23 37 28 36 22 48 24 68 -27 -28 59 -30 -31 34 32 -34 63 -36 -37 -38 -39 -40 70 56 60 43 54 45 -47 -48 -49 -50 50 51 -53 -54 -55 -56 -57 57 -59 -60 -61 -62 -63 -64 64 65 66 -68 -69 69 -71 71 -73
leaf_value=-0.22125711929992484 -0.01052890551254562 -0.23319243755806299 0.04398617412298092 -0.10977005408478192 -0.20311378802330474 -0.093576960273738574 0 -0.0052470149799927314 -0.21644376267233972 0.012462469979368665 -0.13181323237226308 -0.038386238547168695 -0.089116247197183945 -0.20417888282426361 -0.21608261923219177 -0.024485888120082976 -0.030630232464644705 0.018283562275966423 -0.13330107145679207 0.0045322492665996542 -0.018548961234204773 0.014134403770737462 -0.1182926317319274 0.051336641004907216 0 -0.034130262450015721 -0.05375698469378775 -0.24371153777242477 -0.18157547279037692 -0.018734194963079251 -0.043268851343024634 -0.14057404245155639 0.025998063201487235 -0.14055187522951931 -0.0264114316454853 -0.011632591311119477 -0.21342108340642599 -0.12324317816161998 0.010344883215527611 0.046141362154160787 -0.19425968623542217 0.021424550784974322 0.0091318326532790969 -0.11068584982994543 0.032547781102822249 -0.091923075670078777 -0.169528052078637 -0.0046427738318172724 -0.017298772033687338 -0.096423294531836692 0.0311704302963965 -0.046629885735821747 -0.027859964441463422 -0.0059919471366037301 -0.017162620671147644 0.039217066604234053 -0.096941593620765709 -0.1554659330974765 0.0068376112519842854 -0.12041038332323417 -0.047847629079311955 0.020871438500801479 -0.10468372413323682 -0.14764748459219221 -0.14117902083044973 0.0058101088117625786 -0.059694558274460477 0 -0.10809584299103422 0 0.028797481729718435 -0.056497985710396999
leaf_weight=9.1503732576966268 1.0741605386137987 165.13261400349438 6.7676360476762047 2.3066753875464263 2.8073323126882346 0.99086284264922087 0.47886561229824831 0.34816314652562397 36.841059194877744 0.89704042114317317 1.3636151924729336 1.5296720303595055 0.92957136221230063 2.8241248801350598 3.7558731250464907 1.5588321145623902 0.65189453586936297 2.0174859538674372 1.2599011417478303 0.63019547797739528 0.34702157601714123 2.8406278192996979 1.9581547752022745 5.914263714104889 0.44289658591151226 1.0200500059872863 0.84431317262351413 13.676162347197531 0.64745266921818245 4.1637534834444523 0.82899636588990677 1.8869352843612439 0.37285849452018727 5.6617847811430675 0.89263097569346417 0.33461894653737534 5.1612854152917862 6.320441372692585 1.4176952168345449 3.8055356293916702 8.2901925221085531 1.3539433032274248 1.9747958667576311 0.96842160820961032 0.55505164898931969 0.32333673350512981 4.4777737241238356 0.43227997235953797 0.94074192456901062 1.0852921269834044 1.5832545012235644 1.3212851043790577 0.3246190957725047 0.4858059026300906 1.1649483218789098 3.3346729837357998 1.9866793509572738 3.9718794580549002 0.60511194728314865 1.5977734550833691 0.79972115531563748 0.75456619821488846 0.40829379484057426 1.6947476509958503 0.43917249143123616 1.7336271833628418 2.0654036533087492 0.28814053721725941 0.99326906353235223 0.3654610738158226 0.82851637154817559 0.4685740377753973
leaf_count=564 36 10211 196 110 148 46 16 12 2087 26 68 53 39 144 202 52 23 60 58 19 13 85 84 160 13 37 36 820 36 136 30 88 10 273 31 11 268 268 43 104 476 40 60 43 14 16 208 14 31 46 45 49 12 16 39 93 92 209 19 72 31 22 20 84 27 52 78 9 45 11 22 19
internal_value=-0.181202 -0.214545 -0.109853 -0.108074 -0.164942 -0.0806296 -0.063498 -0.221775 -0.189606 -0.20946 -0.138575 -0.047914 -0.149278 -0.116869 -0.135814 -0.111572 -0.0355164 -0.0449427 -0.0711226 -0.0182977 -0.188713 -0.0887846 -0.0416245 -0.0155767 0.0156483 -0.167438 -0.232435 -0.221063 -0.0843968 -0.0542549 -0.119449 -0.046275 -0.0986562 -0.108036 -0.13977 -0.187553 -0.203958 -0.0972121 -0.0344613 0.0145116 -0.166815 -0.0420962 -0.0624296 -0.0345613 0.0402108 -0.0238463 -0.154921 -0.121242 -0.0928479 -0.0175018 -0.0366574 -0.00416445 -0.205869 -0.107579 -0.071977 0.0250387 -0.170071 -0.129678 -0.0734544 -0.234425 -0.00589448 -0.0210353 -0.052069 -0.115863 -0.085734 -0.0517457 -0.0309541 -0.107533 -0.0655465 -0.0846668 0.0328018 -0.00524525
internal_weight=349.471 239.465 15.918 110.005 35.1174 74.888 57.8505 223.547 57.5705 18.4777 20.7294 49.5161 8.33444 6.9887 17.0375 16.6397 42.5274 35.8951 18.6014 6.42708 5.98717 13.4978 5.73952 17.2937 8.59428 3.84417 165.977 17.5806 2.44051 5.52737 7.75823 8.69939 2.69207 12.957 6.1994 3.14195 5.50831 12.1743 2.34727 6.6323 15.202 3.14453 5.85387 4.10817 6.79265 0.878388 5.30677 2.31922 2.8989 6.00732 3.98983 2.90454 4.08049 1.74571 2.13337 3.98657 14.8539 6.56367 2.59179 15.2739 2.15366 1.79306 1.03849 11.8829 6.22109 4.52634 3.79903 0.727313 1.80163 1.35873 5.10263 1.29709
internal_count=18730 14106 760 4624 1708 2916 2143 13346 3099 1028 1012 1764 379 298 773 680 1466 1268 697 213 297 521 200 571 259 181 10247 1002 97 204 321 312 112 559 269 159 281 484 82 198 808 117 216 142 190 30 238 102 115 200 140 94 214 74 82 116 796 320 111 892 71 61 39 523 250 166 130 36 69 56 145 41
is_linear=0
shrinkage=0.078106


Tree=2
num_leaves=73
num_cat=0
split_feature=15 28 5 25 1 23 12 23 19 7 28 10 10 28 1 15 15 15 12 14 12 9 22 12 19 6 24 24 28 15 17 6 21 22 10 21 25 1 15 19 13 9 5 10 13 14 15 5 16 12 15 16 1 14 24 5 10 14 10 14 25 22 16 19 10 12 9 19 15 16 10 12
split_gain=83.6172 28.175 20.0002 14.9967 12.4142 10.8691 6.2708 4.58616 4.20214 4.16033 3.30929 3.02419 2.90644 2.83882 2.70739 2.38893 2.38506 1.8512 1.79878 1.74729 1.7234 1.70546 1.64727 2.97271 1.78509 1.63178 2.33301 1.60763 1.5925 1.58835 1.48721 1.43782 2.09899 1.3328 1.32532 1.32161 1.32091 1.29729 1.28161 1.21484 1.16429 1.11103 1.0461 1.05782 1.04349 0.976233 1.0061 0.824241 0.759688 0.853805 0.74183 1.13846 0.983186 1.27122 0.681852 0.679286 0.667448 0.665186 0.640889 0.629043 0.626516 0.611681 0.609935 0.606385 0.56319 0.656636 0.561719 0.533904 0.532411 0.530871 0.487526 0.464365
threshold=125.63300000000002 0.08450000000000002 3.5000000000000004 37.851000000000006 1.0000000180025095e-35 4.5000000000000009 183.50000000000003 6.5000000000000009 0.43150000000000005 1.0000000180025095e-35 0.15250000000000002 0.34550000000000003 0.044500000000000005 0.030500000000000003 1.5000000000000002 68.874500000000012 184.06400000000002 202.74250000000004 42.500000000000007 78.471000000000018 199.50000000000003 705.91800000000012 4.2520000000000007 243.50000000000003 0.44050000000000006 3.5000000000000004 7.5000000000000009 -1.4999999999999998 0.098500000000000018 620.83000000000004 18.901500000000002 1.5000000000000002 47.543000000000006 3.9675000000000007 0.21350000000000002 20.009000000000004 21.082000000000004 1.0000000180025095e-35 100.27250000000002 0.47550000000000003 25.371000000000006 49.948500000000003 13.500000000000002 0.25650000000000006 350.3780000000001 81.045500000000018 341.58050000000009 3.5000000000000004 1316.6230000000003 108.50000000000001 174.76900000000003 1155.8520000000001 1.5000000000000002 155.43000000000004 5.5000000000000009 3.5000000000000004 0.22150000000000003 42.063500000000012 0.032500000000000008 9.7210000000000019 32.580000000000005 4.3760000000000003 285.59400000000005 0.50050000000000006 0.37750000000000006 174.50000000000003 177.05850000000001 0.45250000000000007 216.3135 1024.1170000000002 0.24950000000000003 190.50000000000003
decision_type=2 2 2 2 2 2 2 2 2 2 2 2 2 2 2 2 2 2 2 2 2 2 2 2 2 2 2 2 2 2 2 2 2 2 2 2 2 2 2 2 2 2 2 2 2 2 2 2 2 2 2 2 2 2 2 2 2 2 2 2 2 2 2 2 2 2 2 2 2 2 2 2
left_child=1 2 4 7 15 40 10 11 16 12 35 21 66 20 38 -1 48 -12 58 -7 70 -2 25 24 28 50 33 -26 61 34 62 32 -29 -27 -8 44 57 41 -3 42 -4 -18 43 67 -5 -39 -47 -43 49 -9 60 -52 53 54 -53 -38 -11 -33 -6 -17 -15 -24 -20 -16 -51 -66 -10 -25 -49 -63 -14 -62
right_child=3 14 5 6 18 19 29 8 9 56 17 -13 13 22 63 59 37 -19 30 -21 -22 -23 23 39 27 26 -28 31 -30 -31 -32 36 -34 -35 -36 -37 55 45 -40 -41 -42 47 -44 -45 -46 46 -48 68 -50 64 51 52 -54 -55 -56 -57 -58 -59 -60 -61 71 69 -64 -65 65 -67 -68 -69 -70 -71 -72 -73
leaf_value=-0.17824265770210898 -0.17355222304974433 -0.1821083067563693 -0.044372726228027827 -0.1199043961524381 -0.0086861656094901069 -0.12956588857170334 -0.078996187736362258 0.0072272351673088094 0.014375772603238669 -0.042727833195139488 -0.1387030155783987 0.00038614847118976532 -0.022640166136312558 -0.033446505326291107 -0.059460035103503318 -0.0017176067682324358 0.042157339390219144 0 -0.035765695127380329 -0.0058967862769806253 -0.07870840463529756 0 0 0.033917016648563524 0.024156336881646454 -0.0060350461642298264 0 -0.00085332623217110174 0.0092354166784148189 -0.028956577357787051 -0.085283732449240202 -0.065687720953564677 -0.16190876828860415 -0.15760045593205138 -0.17217307330702925 0.0071304359086515811 -0.020428929442880522 0.0046614195867891971 -0.13094269174619658 0.023782549086218154 0.047893634764910334 0.032991808465713826 0.024957806792200683 -0.095249580262999692 0.0098367323916678448 -0.1294987825993551 0.0061305038996040265 -0.087724150634623341 0.0070288044466540649 -0.12597131234361841 -0.007000248443375043 -0.079311494144696293 -0.14865420897551598 0.00065737559993519535 0.010998634051508966 -0.089003098454700613 0.041306074575597589 0.01834197176124162 -0.13560183418703167 -0.09834823559855381 -0.14093826592813405 -0.0065964644585520477 0.01618439094694403 -0.14449269334606302 0.01118416767245013 -0.077032092028135324 -0.042485232137287075 -0.04829160445514373 0 -0.13613438665642297 0.036708175448013303 -0.01126906064897642
leaf_weight=19.809166646562524 3.5547176152467723 145.60010092984885 0.58246038202196171 0.70267091132700599 0.43767224438488295 3.7709116619080305 2.2701487187296214 0.4708524839952587 3.0451757991686454 0.33358471747487728 3.2987303910776973 0.80992147792130698 0.79431774653494303 1.0385137340053945 2.8813321143388739 0.61176744848489706 5.2726816963404399 0.72027910593897093 1.8899433771148322 0.97812581062316883 1.1306485775858162 0.37700857780873764 0.34051806293428555 0.72315247822552897 0.57573343813419597 0.47943954821675916 0.75029443111270655 0.65040360484272541 2.8268096148967743 0.85527225956320663 1.6242900444194672 0.44071075133979221 2.9827352510765195 5.183280823752284 13.912960897199808 3.3945493288338184 1.4366502836346615 1.2395655177533629 8.5334696630015952 2.6856775628402829 6.9704804783686996 0.77143491059541736 0.81584994681179512 1.6977514661848543 0.40182825177907944 0.57786458078771819 0.36470027640461922 0.64855639636516549 0.61362805496901263 1.3360897842794659 2.2608395209535948 5.8914536200463754 0.80097689013928164 1.654865422286093 0.36400196328759182 11.81048330850899 2.5093501340597868 1.4042325336486099 1.4129043566063044 2.4328755335882306 2.349469425156713 0.38456625863909699 3.021451442502439 1.2278604097664354 0.72062609810382106 0.6256715077906847 1.1285876343026755 0.45734413340687752 0.80612492188811302 0.64110950008034706 2.4534174166619778 0.33963722456246603
leaf_count=1492 213 10849 25 44 19 218 108 14 93 14 189 27 29 41 123 23 155 25 65 35 51 13 11 19 16 18 24 22 89 31 81 20 167 296 895 108 52 38 521 80 204 22 23 82 12 33 11 31 19 70 75 242 53 56 10 516 71 41 101 143 119 14 91 79 21 29 44 20 25 40 68 12
internal_value=-0.132682 -0.162238 -0.104693 -0.0760536 -0.137603 -0.0190985 -0.128232 -0.0589085 -0.0535985 -0.062119 -0.0678739 -0.132406 -0.0665483 -0.0712586 -0.177747 -0.167307 -0.0131062 -0.116337 -0.0522951 -0.107366 -0.00883577 -0.158384 -0.0764222 -0.0623983 -0.075121 -0.0945607 -0.130636 -0.0851997 -0.0244267 -0.155949 -0.0286078 -0.0892256 -0.137092 -0.146739 -0.161545 -0.0178175 -0.0742432 0.00743987 -0.179643 -0.0132417 0.0383728 0.0232588 -0.0409789 -0.0618157 -0.0793978 -0.0404267 -0.0871585 -0.0193675 -0.0627524 -0.0769008 -0.0755489 -0.0602156 -0.0726322 -0.0577583 -0.0730313 -0.0826987 0.0260655 -0.00764759 -0.114364 -0.0826635 -0.10959 -0.0832599 -0.004105 -0.0962105 -0.0921987 -0.0352766 -0.00231529 0 -0.0507174 -0.105996 0.020065 -0.129548
internal_weight=307.912 201.785 43.542 106.127 31.2401 12.302 25.5564 80.571 75.8294 62.3816 8.51806 4.74165 59.5386 55.3649 158.243 22.8538 13.4478 4.01901 8.38626 4.74904 4.37838 3.93173 50.9865 29.8737 23.494 21.1128 6.41301 19.3009 4.193 17.0384 6.53568 18.7252 3.63314 5.66272 16.1831 4.49905 15.0921 9.68093 154.134 6.37978 7.55294 7.4988 3.6941 2.87825 1.1045 2.18213 0.942565 2.22612 3.76687 3.15324 14.6998 10.9721 8.7113 7.91032 6.25546 13.2471 2.84293 1.84494 1.85058 3.04464 3.72762 1.36619 4.91139 4.10919 2.68239 1.3463 4.17376 1.1805 1.45468 1.02568 3.24774 2.68911
internal_count=18730 14069 2497 4661 2015 482 1412 3249 2996 2528 378 253 2443 2306 11572 1658 468 214 357 253 148 226 2158 1212 988 946 338 834 154 1034 237 818 189 314 1003 164 629 315 11370 224 229 233 144 121 56 82 44 78 153 134 608 436 361 308 252 568 85 61 120 166 172 65 156 202 120 50 137 39 56 54 97 131
is_linear=0
shrinkage=0.078106


Tree=3
num_leaves=73
num_cat=0
split_feature=5 1 0 23 28 3 24 21 28 5 1 21 2 21 5 28 16 5 21 0 19 7 6 9 19 10 23 21 14 9 5 28 11 28 9 10 2 19 16 5 21 10 19 3 9 16 11 10 16 1 10 19 21 9 21 16 11 9 9 9 23 27 28 16 21 21 0 24 27 28 23 28
split_gain=55.4272 14.4057 12.9224 16.7987 4.90676 4.72781 4.70218 4.24851 4.24786 3.96064 5.4106 3.47165 4.34952 4.61384 3.43683 3.01468 2.54193 2.53094 2.24123 2.20458 2.0034 1.93714 1.93663 1.71863 3.15333 1.64467 1.69224 1.63118 2.02282 1.95999 1.6311 1.55586 1.53136 1.32181 1.21798 1.20113 1.20108 1.18023 1.15726 1.0282 0.929985 0.899926 0.85829 1.36545 0.832109 0.803693 0.864806 0.773024 0.758245 0.742387 0.707456 0.676824 0.663905 0.662264 0.62747 0.603776 0.590338 0.583596 0.583454 0.581155 0.557936 0.555429 0.54832 0.540639 0.524158 0.505727 0.484535 1.07881 0.482881 0.463417 0.447295 0.445975
threshold=2.5000000000000004 1.0000000180025095e-35 1.5000000000000002 1.5000000000000002 0.13750000000000004 2.5000000000000004 1.0000000180025095e-35 58.301500000000004 0.17050000000000004 4.5000000000000009 1.0000000180025095e-35 13.362000000000002 1.0000000180025095e-35 56.340500000000006 1.5000000000000002 0.07350000000000001 591.0060000000002 13.500000000000002 36.652500000000011 2.5000000000000004 0.45650000000000007 1.0000000180025095e-35 3.5000000000000004 86.976000000000013 0.43650000000000005 0.47750000000000004 4.5000000000000009 34.135500000000008 39.898500000000006 17.438000000000006 9.5000000000000018 0.12650000000000003 0.5505000000000001 0.06950000000000002 30.391000000000002 0.34950000000000003 1.0000000180025095e-35 0.46950000000000003 1482.2510000000002 5.5000000000000009 39.016000000000005 0.33950000000000008 0.48350000000000004 1.5000000000000002 59.463000000000008 1099.5675000000003 0.99650000000000005 0.27950000000000008 1460.0700000000002 1.0000000180025095e-35 0.20550000000000002 0.48050000000000004 44.669000000000004 126.81200000000003 -2.9644999999999997 1316.6230000000003 0.99250000000000005 548.57850000000008 74.531500000000008 793.90600000000006 15.500000000000002 27.906500000000005 0.0055000000000000005 185.42200000000003 26.845000000000002 41.675500000000007 1.0000000180025095e-35 -2.4999999999999996 20.500000000000004 0.11750000000000001 9.5000000000000018 0.44550000000000006
decision_type=2 2 2 2 2 2 2 2 2 2 2 2 2 2 2 2 2 2 2 2 2 2 2 2 2 2 2 2 2 2 2 2 2 2 2 2 2 2 2 2 2 2 2 2 2 2 2 2 2 2 2 2 2 2 2 2 2 2 2 2 2 2 2 2 2 2 2 2 2 2 2 2
left_child=1 19 3 7 14 9 21 -2 36 11 18 -4 16 31 -3 25 53 27 22 -1 64 66 69 24 47 26 40 63 59 -30 45 50 -21 62 -16 -15 55 -38 54 -26 -8 48 43 -27 -41 -12 -47 70 49 57 68 -48 -22 -13 -6 -7 58 -33 -31 -29 -18 -32 -28 -17 -10 -36 -5 -68 -14 -11 -20 -65
right_child=2 4 5 6 38 8 15 -9 20 10 30 12 13 35 34 17 60 -19 23 32 52 -23 -24 -25 39 42 33 28 29 56 61 41 -34 -35 65 -37 37 -39 -40 44 -42 -43 -44 -45 -46 46 51 -49 -50 -51 -52 -53 -54 -55 -56 -57 -58 -59 -60 -61 -62 -63 -64 71 -66 -67 67 -69 -70 -71 -72 -73
leaf_value=-0.14934146956402553 0.046100629123881708 -0.12257327870156863 -0.13016207760342638 -0.15587448712497767 -0.018636721980440876 -0.08912634310556479 0.044304210442160291 -0.12046636473574437 -0.06078744601564276 0.030856751871828132 -0.078756944966538678 -0.1069266410606807 -0.066999942726913175 -0.16618530159841002 -0.068300343072213374 -0.015155333564930762 0.03157914127223941 0.024787987398726542 -0.028772588309691639 -0.091115734281570368 -0.11557950108477257 0.00095939624078649843 -0.093604011188512096 -0.16066772164728188 -0.016082902316965058 0.016259481886129766 -0.011852765629686148 -0.12858495276123708 -0.1094314285157575 -0.071296730848497206 0 -0.11656057458253793 0.027877875645567287 0.0038918126744549426 0 0 0.047300903723602399 -0.025857868938814272 0 -0.15646038372563667 -0.057746233857039614 -0.13224730018451508 0.041349649252100898 -0.085235701009616319 -0.023862115453503835 0.0070689855163791806 -0.084040245864862667 -0.06471523589419545 0.018493861811220647 0.0030866210664202238 0.011519055414570264 0.0078243786359573405 -0.019598308209677704 0 -0.13282371418980132 0.0056998203097227166 0.012679410248607546 0 -0.018949994472831487 -0.0036310749500097551 -0.025441733603383854 -0.11822646024611529 -0.11127999329540669 -0.13450560976020537 0.016296674821184597 -0.051169282392138631 -0.0025797171836357789 -0.11380812149625233 0.014449154262943199 -0.036409419112294249 0.040303372570820874 -0.023173756461594187
leaf_weight=116.37879248335958 6.1989520583301774 2.3633366720750937 1.5675589507445717 12.710599890910094 0.54672153294086356 0.37747952900826831 0.96744200121611157 0.69806273654103268 0.29935245867818538 1.4726300854235916 0.65200843010097642 0.82731162291020399 1.0471192393451909 1.8911971859633916 2.3540945108979949 0.4534241370856823 9.7707035411149228 0.76160604972392221 0.45799707807600354 1.6783473519608372 2.1829905277118091 0.52234211191534896 1.9111058013513682 4.7913343114778399 0.68241130281239737 1.4940941808745272 0.58674687054008234 4.9685287699103347 2.8688182672485691 2.2702684458345175 0.30700667016208072 0.7519720476120717 0.67630422860383976 0.70906077791005362 7.6085563264787179 0.23871357832103957 7.8428697269409877 1.2628653869032858 0.43650583550334054 2.7961882157251243 0.51392145268619061 0.68647829722613085 1.1994435070082543 1.0437887692824004 0.58408794365823258 6.8432408953085524 0.91033799480646826 0.60827760770916928 0.83266266435384739 0.61645516008138646 4.839658560231328 0.55258438363671303 0.90307965874671925 0.50708853919059038 7.8814644441008541 0.61315242573618889 1.1623282385990021 0.30656860582530499 4.0321067692711949 0.34038059134036291 0.78651227615773756 1.0594451688230035 4.232511680573225 11.683084256947037 2.0568739669397473 0.96969875320792187 0.71172791812568892 4.5565322134643784 0.35369816981255997 0.52550391200929869 1.2887260597199199 0.50998884532600719
leaf_count=10565 190 190 116 1067 33 24 25 62 16 42 34 61 46 135 115 25 298 22 22 122 114 20 95 297 27 48 25 380 163 117 11 45 19 25 250 8 219 49 17 170 33 48 33 67 24 218 48 29 24 20 157 16 34 21 626 19 38 10 156 16 34 64 243 905 64 46 31 297 10 24 37 29
internal_value=-0.102719 -0.136781 -0.0658093 -0.0905241 -0.076416 -0.0409403 -0.104104 0.0230676 -0.00284791 -0.0524672 -0.0741917 -0.029399 -0.020454 -0.0538356 -0.0437946 -0.0869326 0.0123162 -0.100337 -0.103621 -0.147722 -0.0564691 -0.138242 -0.0444867 -0.121661 -0.0843291 -0.0480423 -0.06943 -0.104157 -0.0820729 -0.0573498 -0.0284674 -0.0269151 -0.0561682 -0.0881496 -0.0227239 -0.14864 0.0266454 0.0360276 -0.12094 -0.123107 0.00180009 -0.0679913 -0.00404936 -0.0297176 -0.139601 -0.0137232 -0.00478834 -0.00777817 -0.0333867 -0.0600124 -0.00243767 -0.0525319 -0.0941594 -0.0756881 -0.127087 -0.0420962 -0.0323107 -0.0908497 -0.0415467 -0.122173 0.0261582 -0.0980083 -0.101847 -0.127848 0 -0.00727964 -0.14247 -0.100803 -0.0452143 0.00819395 0.0181057 -0.131075
internal_weight=272.095 140.894 131.201 65.1958 22.1604 66.0052 58.2987 6.89701 15.5387 50.4666 25.4429 25.0237 23.4561 11.5645 13.2957 39.7975 11.8916 29.0505 15.1183 118.733 5.4423 18.5012 3.90924 11.209 6.41769 10.747 7.00968 28.2889 15.6424 10.3335 10.3246 9.43461 2.35465 5.52832 10.9323 2.12991 10.0964 9.10574 8.86469 4.06269 1.48136 3.19414 3.73733 2.53788 3.38028 8.95817 8.30616 2.355 2.50766 1.675 6.24048 1.46292 3.08607 1.3344 8.42819 0.990632 7.4647 1.05854 6.30238 5.30891 10.5572 1.36645 4.81926 12.6465 2.35623 8.57826 17.9789 5.26826 1.40082 1.99813 1.74672 12.1931
internal_count=18730 11983 6747 4017 1277 2730 3765 252 539 2191 1158 1033 917 503 601 2350 414 1851 767 10706 228 1415 161 606 309 499 351 1829 870 474 391 360 141 293 411 143 311 268 676 221 58 147 148 115 194 316 282 88 99 75 213 64 148 82 659 43 311 55 273 396 332 75 268 959 80 296 1395 328 56 66 59 934
is_linear=0
shrinkage=0.078106


Tree=4
num_leaves=73
num_cat=0
split_feature=13 28 25 23 21 0 12 21 20 22 23 28 1 21 22 28 11 18 0 2 17 18 20 6 18 4 13 2 2 20 12 2 22 14 11 1 2 4 22 2 21 21 13 17 11 13 4 13 11 0 13 13 13 21 18 6 1 28 22 2 6 12 21 1 13 28 20 22 22 20 12 17
split_gain=42.6592 16.5068 9.46971 8.52413 5.17856 4.67874 4.6517 2.36349 2.68002 2.26341 4.58568 2.40219 2.24588 2.12486 4.83795 2.6956 2.40489 2.0457 1.93602 1.79484 1.73022 1.58382 1.52326 1.43792 1.53314 1.34788 1.1385 1.0919 1.08893 1.04396 1.70873 1.45005 1.03277 1.02457 1.01242 1.19025 1.36804 0.985037 0.965886 0.920008 0.941183 1.09398 0.864066 0.820693 0.765121 0.76266 0.716681 0.707034 0.728473 0.706826 0.676698 0.667031 0.637289 0.627972 0.609975 0.608263 0.605214 0.584376 0.578319 0.568542 0.553572 0.551231 0.545171 0.530476 0.678703 1.24879 0.528398 0.527706 0.98978 0.771262 0.538604 0.559173
threshold=159.48450000000005 0.10050000000000002 35.943000000000005 1.5000000000000002 56.340500000000006 1.5000000000000002 34.500000000000007 17.839500000000005 0.35250000000000004 4.3705000000000007 14.500000000000002 0.12850000000000003 1.0000000180025095e-35 57.536500000000011 4.6375000000000011 0.17250000000000001 0.98550000000000015 3.8815000000000004 1.0000000180025095e-35 1.0000000180025095e-35 72.425000000000026 3.9065000000000007 0.68450000000000022 3.5000000000000004 3.7565000000000004 14.500000000000002 408.75900000000007 1.5000000000000002 1.5000000000000002 0.49650000000000005 180.50000000000003 1.0000000180025095e-35 3.9240000000000004 57.374000000000002 0.95050000000000001 1.0000000180025095e-35 1.0000000180025095e-35 11.500000000000002 5.5735000000000001 1.5000000000000002 34.869500000000009 20.009000000000004 244.10800000000003 63.445500000000003 0.97250000000000003 526.6880000000001 22.500000000000004 216.79900000000001 0.0025000000000000005 2.5000000000000004 297.04600000000005 252.4145 408.75900000000007 45.805000000000007 3.8835000000000002 3.5000000000000004 1.0000000180025095e-35 0.07350000000000001 4.0050000000000008 2.5000000000000004 1.0000000180025095e-35 152.50000000000003 36.652500000000011 1.5000000000000002 132.56250000000003 0.15050000000000002 0.23950000000000002 4.0385000000000009 4.267500000000001 0.59150000000000003 299.50000000000006 72.425000000000026
decision_type=2 2 2 2 2 2 2 2 2 2 2 2 2 2 2 2 2 2 2 2 2 2 2 2 2 2 2 2 2 2 2 2 2 2 2 2 2 2 2 2 2 2 2 2 2 2 2 2 2 2 2 2 2 2 2 2 2 2 2 2 2 2 2 2 2 2 2 2 2 2 2 2
left_child=1 3 13 4 -1 9 27 -8 54 10 47 56 21 15 37 16 25 32 -10 22 26 23 50 42 -25 29 33 38 43 -2 34 -32 -18 -21 35 36 -31 -15 -5 40 41 45 -7 -16 52 -14 -12 48 -4 -39 -17 -34 -27 60 -9 59 -11 -46 -41 -33 -50 -42 -53 64 -3 -66 -23 -19 69 -69 71 -70
right_child=2 63 5 6 -6 12 7 8 18 11 46 -13 39 14 28 19 17 67 -20 20 -22 66 -24 24 -26 44 -28 -29 -30 30 31 55 51 -35 -36 -37 -38 49 -40 58 61 -43 -44 -45 57 -47 -48 -49 53 -51 -52 62 -54 -55 -56 -57 -58 -59 -60 -61 -62 -63 -64 -65 65 -67 -68 68 70 -71 -72 -73
leaf_value=0.040101472534784015 0.043693167652434577 -0.13271431707320763 -0.0028955641743373356 -0.12778944873723791 -0.10914114241033739 -0.0460700302435849 -0.11200258914037281 0.0016063129044881822 -0.11591491942237565 -0.041709641210351873 -0.14843681825417848 -0.094379038996668191 -0.076525963774669151 0.0024072908380651389 -0.044954534496030166 -0.089524596601425283 0.011460478764796415 0.027858034237685715 -0.030616172175671214 -0.00781110833028125 -0.12384981614205386 -0.019420987383019908 0.018982258420106316 0.042746699306690394 -0.10348427358079765 -0.069309784979597111 -0.0015679797651412461 0.0015024753803818893 -0.065396762590076221 0.042947997836768968 -0.10341133924681138 0.028929463211241877 -0.005114590146068269 -0.083486272805533959 0.038780685908960812 -0.060306750330037219 -0.032191922945655135 -0.14903220051633093 -0.0062731816651057605 -0.0086897799171275925 -0.086666740128062983 0.036913523200901278 0.027265279930245197 0.028162580557376124 0.02779159013259561 0.017154502712918587 -0.01953984905929634 -0.019663175010342784 0 -0.057293506574145621 0.0011574106049433881 -0.0078641515877317884 0.0062031188589815331 0.0015367834596310451 -0.059488918982816025 -0.053195086415795213 0.032829536491569944 -0.03394938703683438 -0.079864122036499827 -0.043726816849054752 -0.11421860059111258 -0.010893733239038644 -0.13141255694504103 -0.066612748052397003 -0.02607612668195769 -0.10994605556286459 -0.11900962165855404 -0.095793642771686241 0.009394979230898241 -0.015088120348626383 0.043575435092551081 -0.06081245371443094
leaf_weight=6.0825663106515995 4.7905147923156681 84.26903882343322 0.80919374804944455 12.436519271694122 1.4228734290227292 1.271419552154841 3.5573301427066353 6.8599535524845106 3.2101393667981029 0.54066471662372295 10.124325575307008 2.2924394961446524 0.74418108910321989 0.33222263120114615 0.81131345033645619 1.141307851299646 0.40943224821239566 1.105286221951246 4.0224498482421041 1.7598803676664809 2.1404195427894583 0.66567117441445578 3.8186957817524672 0.26006490364670787 2.0141296647489071 2.403212183155119 2.8927355539053679 0.35665944498032409 1.0639328472316263 3.3466058997437376 1.0073779812082637 2.2431226912885913 0.50864552892744574 3.9615352842956781 6.5628001699224114 1.334044982679188 2.0301665375009179 2.6993044279515743 0.53665747214108783 1.4545285832136872 0.62604985851794515 3.764766963198781 1.9771911371499298 3.658188458532095 1.7638303684070709 0.65969922114163637 0.486017797142268 2.8871827041730285 0.23395299073308784 1.7543278001248834 0.58778956532478321 0.38561776559799943 0.68175257090479124 0.27940117381513108 0.75017976108938444 0.85693102050572623 1.8198711127042768 1.2595209004357455 1.6704564020037649 0.46745922695845354 2.3231890415772796 2.1505898954346776 1.9998149974271653 2.4037526026368132 1.8444671621546138 5.9983861846849322 3.5674145724624395 1.1022456642240288 1.6285096844658262 2.0859664715826511 1.1017438890412448 0.63940891623496998
leaf_count=206 147 9392 53 1362 156 70 364 243 283 34 1014 190 43 13 45 81 13 32 217 69 127 37 127 5 128 110 110 22 54 98 62 69 19 211 193 64 89 219 32 53 28 106 61 116 51 20 26 144 12 96 19 16 23 11 55 43 60 55 84 26 227 75 131 139 125 593 249 80 58 83 29 33
internal_value=-0.0811275 -0.110683 -0.0445399 -0.0667896 0.00723428 -0.0732068 -0.0843169 -0.0564062 -0.0402541 -0.0986948 -0.112109 -0.0435147 -0.0449918 -0.0257317 -0.0580064 -0.019345 -0.00804738 -0.0385207 -0.0730702 -0.0457617 -0.0639201 -0.0718583 -0.00790416 -0.038634 -0.0812354 0.00378096 -0.0438002 -0.119811 -0.00592402 0.0127346 0.00341787 -0.0355991 -0.0866828 -0.0629416 0.0178325 -0.00301491 0.0135254 -0.112356 -0.123435 -0.0192761 -0.00373966 0.0152149 -0.0020421 0.011406 -0.0274725 -0.035799 -0.143851 -0.0546957 -0.0767237 -0.121365 -0.062003 -0.101671 -0.0524836 -0.0934716 -0.00645218 -0.00698887 0.0106005 0 -0.0526778 0.0109997 -0.104233 -0.0379943 -0.117 -0.128506 -0.129784 -0.0929473 -0.107298 -0.0139973 -0.0228779 -0.0516698 0.00568253 -0.0146998
internal_weight=242.709 133.751 108.958 39.2353 7.50544 42.6224 31.7299 18.4001 14.8427 21.7962 17.1433 4.65298 20.8262 66.3357 10.3193 56.0164 39.714 10.9667 7.23259 16.3024 10.7546 9.75589 5.54779 5.52281 2.27419 28.7473 8.61415 13.3298 5.53343 22.639 17.8485 4.57489 3.30351 5.72142 13.2736 6.71082 5.37677 4.78585 12.9732 11.0703 7.94529 5.16865 3.24861 4.4695 6.10832 1.40388 10.6103 6.53292 3.64574 4.45363 1.7291 2.89408 3.08496 2.83654 7.61013 3.56751 2.36054 3.02335 3.12498 2.71058 2.55714 2.77664 2.38543 94.5156 92.1119 7.84285 4.23309 7.66316 6.55787 3.18821 3.36966 2.26792
internal_count=18730 13189 5541 2940 362 2730 2578 1162 798 1771 1487 284 959 2811 543 2268 1524 494 500 744 517 550 227 264 133 1030 390 1416 215 791 644 200 179 280 444 251 187 328 1394 409 272 169 131 161 239 63 1040 447 303 315 100 166 133 250 298 138 94 106 137 95 239 103 147 10249 10110 718 286 315 283 163 120 91
is_linear=0
shrinkage=0.078106


Tree=5
num_leaves=73
num_cat=0
split_feature=19 0 28 13 12 21 13 26 21 3 26 1 18 19 2 20 3 12 18 10 16 13 16 10 21 6 17 18 13 28 13 21 20 9 20 9 16 0 20 9 17 13 9 18 2 21 16 16 17 21 13 26 16 17 1 9 17 19 10 17 17 3 1 10 9 28 13 18 6 26 20 17
split_gain=32.4807 13.5098 8.58383 3.47803 3.65583 3.20959 3.34129 3.50951 2.99387 2.23723 2.11749 2.97171 2.09196 1.92653 1.77409 4.96777 4.58481 4.8859 2.39879 1.74854 1.63638 1.45183 1.44544 1.43306 1.38228 1.24132 1.21824 1.19613 1.23608 1.1845 1.63008 1.17624 1.22958 0.974766 1.20311 0.907119 0.900968 0.910545 1.2568 0.861111 0.830362 0.785093 0.75667 0.739731 0.727734 0.722103 0.715905 0.714183 0.71037 0.688516 0.677459 0.711919 0.659225 0.749428 0.621865 0.62064 0.602446 0.793614 0.571333 0.565124 0.550239 0.543416 0.533174 0.49726 0.54158 0.496817 0.485225 0.832947 0.473224 0.461193 0.46118 0.460164
threshold=0.51550000000000018 1.5000000000000002 0.12250000000000001 258.36750000000006 194.50000000000003 24.253000000000004 25.371000000000006 10.553000000000003 16.543000000000003 2.5000000000000004 2.5435000000000003 1.0000000180025095e-35 3.9425000000000003 0.46050000000000008 1.0000000180025095e-35 0.77850000000000008 1.0000000180025095e-35 183.50000000000003 3.9175000000000004 0.39950000000000008 1003.9035 247.89850000000004 637.04400000000021 0.21350000000000002 45.805000000000007 5.5000000000000009 7.9600000000000009 3.7445000000000008 420.98150000000004 0.16050000000000003 379.39550000000003 -8.6514999999999969 0.14400000000000002 652.71500000000003 0.72250000000000003 7.4220000000000006 2192.5970000000002 2.5000000000000004 0.48150000000000004 5.3850000000000007 53.865500000000004 206.37700000000004 529.73000000000013 4.0385000000000009 2.5000000000000004 26.845000000000002 2192.5970000000002 2008.4005000000002 33.009000000000007 33.028000000000006 111.92450000000001 8.1035000000000021 140.97450000000001 80.660500000000013 1.5000000000000002 17.438000000000006 60.708500000000008 0.45450000000000007 0.67850000000000021 5.0385000000000009 52.184000000000005 1.0000000180025095e-35 1.5000000000000002 0.21650000000000003 50.667000000000009 0.19050000000000003 153.67150000000004 4.0725000000000007 1.5000000000000002 9.8125000000000018 0.67650000000000021 41.118000000000009
decision_type=2 2 2 2 2 2 2 2 2 2 2 2 2 2 2 2 2 2 2 2 2 2 2 2 2 2 2 2 2 2 2 2 2 2 2 2 2 2 2 2 2 2 2 2 2 2 2 2 2 2 2 2 2 2 2 2 2 2 2 2 2 2 2 2 2 2 2 2 2 2 2 2
left_child=1 2 5 62 55 31 -7 10 27 14 24 12 -12 45 16 29 23 33 -19 20 41 69 -17 52 26 -9 -8 68 -29 36 42 -1 59 50 -35 -21 37 48 -39 -6 -25 -13 -31 61 -38 -11 -32 -22 -16 -41 -18 -52 -10 -54 70 -5 63 -58 -47 -33 -34 -24 -4 64 -50 -15 67 -14 -3 -2 -40 -57
right_child=21 8 3 4 39 6 7 25 9 13 11 19 66 65 15 22 17 18 -20 35 47 -23 43 40 -26 -27 -28 28 -30 30 46 32 60 34 -36 -37 44 38 54 49 -42 -43 -44 -45 -46 58 -48 -49 56 -51 51 -53 53 -55 -56 71 57 -59 -60 -61 -62 -63 -64 -65 -66 -67 -68 -69 -70 -71 -72 -73
leaf_value=0.013772880441315825 -0.12134659299863204 -0.050382265964356292 -0.10328472563718903 -0.063899057622031866 -0.0042633660275222182 -0.10243981538162242 -0.05599642737634359 -0.12422298458078522 0 -0.043746847739864363 -0.08604405053485957 -0.018444012957177756 -0.079206772384864219 -0.003854287568099894 -0.048801588901207137 0.001591076310794345 -0.02695485790443633 -0.13473318752043201 0.0072888013443993512 -0.029674059120115344 -0.088341661306738012 -0.030410329758297789 -0.016885334163659574 0.013367377304490811 -0.053579879809199996 -0.0068810813264116545 0.042924550004587204 -0.11915567925619833 -0.025898406301613944 -0.095976750213121409 0.040400682660156693 -0.043756897379222365 -0.10987773275250326 -0.087370030342756339 0.034397919345166776 0.04081410301510318 -0.094103925583546646 0.016542167072689403 -0.080736467359551645 -0.11929242052690031 -0.072463472347833499 0.039086111805323689 0.0010867094765836533 0 0.0040646112774126017 0.042674569034785413 -0.031793026941063042 0.014398290135195854 0.024523215048946105 -0.046320852036006721 0.042818195422324346 -0.025901533952126691 -0.12331738878862965 0.0092657673829880799 0.012212728627884466 -0.021774172615460153 -0.05230840461782231 0.018498853347605027 -0.020860114645864868 0.042191104180688124 0 -0.15140424260377738 -0.040056382640297865 0.038584425606085646 -0.045780327047868372 -0.055054743995556696 0.028981663988869536 0.028618032930228007 0.034426064330292515 0 0 0.025877369975914635
leaf_weight=0.50284714624285687 50.04751139646396 0.23781798547133703 36.34510656259954 0.39622708829119613 0.85416552796959866 3.3411923190578809 0.4801381104625787 2.2829884551465507 0.27410815842449965 0.35694680456071992 6.0050779618322867 5.8814957002177817 0.55763788754120491 2.9419906167313448 0.81836878135801683 0.48646457586437408 0.68352390872314828 1.479249415919184 1.0283940993249414 1.033488162793218 2.2690937062725429 1.5576965361833561 0.39015321433544237 1.6297963205724957 0.94891465920954932 0.85979538550600398 6.3400026108138263 2.9007039433345199 1.7335884287022052 3.0726815909147258 0.97762922942638431 0.78958832006901303 6.2993432553485036 0.60578522272407898 0.60779671743512154 4.8486718777567148 0.95481864549219497 1.9593413695693005 2.5106155415996918 3.4819172420538962 0.63780286861583579 1.47239782102406 0.45316223707050074 0.22035589162260283 0.52388906944543123 8.1828558351844514 1.7421235628426073 0.28457624791190017 1.1402334263548235 2.2730819080024958 12.861476062797006 0.65198639314621765 2.4696888867765669 0.15953904390335072 0.47595752496272314 1.3940827697515485 1.307739472948015 1.7926525091752408 0.62700724042952138 0.36275252746418118 0.27402136847376812 2.8000950189307332 1.7542120628058899 5.1112777646631002 0.77286494430154551 1.8680668240413068 1.2876662360504267 0.44771210243925452 0.70200929371640086 0.13650444056838651 0.61891977861523617 3.398074708878994
leaf_count=35 6714 32 4429 36 40 398 57 278 19 18 521 231 58 105 52 22 50 121 34 48 133 96 21 70 105 57 234 295 90 205 25 88 745 36 17 148 66 63 128 414 49 40 17 9 18 246 78 10 37 123 383 30 240 5 14 91 58 58 26 13 14 232 96 151 37 91 42 16 35 7 24 106
internal_value=-0.0645537 -0.0475793 -0.0665764 -0.0891798 -0.0488492 -0.0417208 -0.0314336 -0.0234713 -0.021397 -0.0163496 -0.0149111 -0.026337 -0.0630929 0.0108926 -0.0238983 -0.0369833 -0.00741259 0.0113673 -0.0817722 -0.0056822 -0.0255892 -0.118563 -0.115011 -0.0695424 0.0195198 -0.0977198 0.0326734 -0.0747344 -0.0898998 -0.0226256 -0.0511465 -0.0855308 -0.0929089 0.0284574 -0.0300025 0.0266252 -0.0115978 -0.00534255 -0.03013 -0.0856825 -0.0161475 -0.00494615 -0.0834688 -0.131301 -0.06329 0.0316843 -0.00255981 -0.0749487 0.00746234 -0.0959851 0.0344368 0.0385401 -0.103005 -0.113601 -0.055776 0 0.0140868 -0.0125662 0.036963 -0.00990892 -0.105432 -0.139863 -0.100928 0.0265096 -0.00483737 -0.0272566 0 -0.0333369 0.00104428 -0.120953 -0.0676225 0.0105373
internal_weight=218.977 167.236 96.4663 49.8969 11.7975 46.5694 38.3408 34.9997 70.7695 65.1954 31.8569 24.0878 8.29809 13.9769 51.2185 28.1293 23.0891 17.9182 2.50764 15.7897 9.90756 51.7417 3.89707 5.17094 7.76906 3.14278 6.82014 5.57412 4.63429 24.2323 6.2456 8.22855 7.72571 15.4106 1.21358 5.88216 17.9867 16.508 5.56483 6.60916 2.2676 7.35389 3.52584 3.4106 1.47871 9.16681 2.71975 2.55367 10.9431 5.755 14.197 13.5135 2.90334 2.62923 3.60549 5.18838 10.1248 3.10039 8.80986 1.15234 6.57336 3.19025 38.0993 7.02438 1.9131 4.81006 2.29302 1.00535 0.939827 50.184 3.12954 4.79216
internal_count=18730 11913 8606 5335 810 3271 2376 1978 3307 2855 1643 1247 637 486 2369 1315 1054 671 155 610 414 6817 284 383 396 335 291 452 385 1031 325 895 860 516 53 196 706 622 229 577 119 271 222 262 84 290 103 143 393 537 463 413 264 245 166 233 341 116 272 101 759 253 4525 225 74 196 116 74 67 6721 152 197
is_linear=0
shrinkage=0.078106


Tree=6
num_leaves=73
num_cat=0
split_feature=5 0 19 1 5 14 21 21 27 27 0 5 12 13 23 21 19 11 13 23 23 12 14 27 14 1 24 26 9 11 19 5 18 14 12 5 2 23 12 5 19 13 19 0 2 18 19 9 19 25 11 9 21 9 11 13 11 12 13 14 14 0 21 13 14 24 21 21 18 9 24 12
split_gain=26.0809 7.93098 4.88117 3.77824 3.11855 2.87063 2.86291 1.89018 1.70403 1.6578 2.12152 1.64245 1.51465 1.39968 1.37924 1.75348 1.63313 1.56669 1.32883 2.83153 1.1402 1.13366 1.13151 1.03581 1.03442 1.03162 0.998428 0.987944 0.811593 0.893667 0.852892 1.67668 1.30545 1.14482 0.799675 0.784192 0.778442 0.773709 1.20797 0.762741 0.752982 0.730412 0.70385 0.685638 0.684955 0.658372 0.641869 0.629434 0.613531 0.609708 0.595369 0.56808 0.559221 0.551848 0.50014 0.514104 0.475646 0.795869 0.798742 0.62331 0.500027 0.690046 0.527318 0.457121 0.45449 0.452739 0.510589 0.691477 0.444248 0.439444 0.421471 0.398219
threshold=1.5000000000000002 1.5000000000000002 0.37850000000000006 1.0000000180025095e-35 3.5000000000000004 165.70200000000003 45.805000000000007 16.019000000000002 26.873000000000005 5.987000000000001 1.0000000180025095e-35 12.500000000000002 180.50000000000003 129.42250000000004 25.500000000000004 38.770000000000003 0.43050000000000005 0.85250000000000015 311.80700000000007 17.500000000000004 3.5000000000000004 32.500000000000007 13.940000000000003 15.758500000000002 108.08600000000001 3.5000000000000004 4.5000000000000009 8.1905000000000019 74.531500000000008 0.9405 0.47250000000000003 7.5000000000000009 3.8885000000000001 68.916000000000011 31.500000000000004 3.5000000000000004 1.5000000000000002 4.5000000000000009 71.500000000000014 2.5000000000000004 0.47750000000000004 497.56200000000007 0.45150000000000007 6.5000000000000009 4.5000000000000009 4.0565000000000007 0.44550000000000006 5.9255000000000004 0.38650000000000007 38.871500000000005 0.0045000000000000014 732.82550000000003 28.484500000000004 59.463000000000008 0.99250000000000005 371.64200000000005 0.96250000000000002 96.500000000000014 285.84800000000007 77.510000000000005 86.015500000000017 4.5000000000000009 53.926000000000009 399.34750000000008 21.440000000000001 1.5000000000000002 37.307000000000009 19.341500000000003 3.9375000000000004 1932.3760000000002 2.5000000000000004 128.50000000000003
decision_type=2 2 2 2 2 2 2 2 2 2 2 2 2 2 2 2 2 2 2 2 2 2 2 2 2 2 2 2 2 2 2 2 2 2 2 2 2 2 2 2 2 2 2 2 2 2 2 2 2 2 2 2 2 2 2 2 2 2 2 2 2 2 2 2 2 2 2 2 2 2 2 2
left_child=8 2 6 4 -4 22 37 50 20 -6 24 47 13 -12 15 18 35 39 19 23 34 -22 -5 65 -11 43 -25 46 30 42 33 32 -32 -24 36 -17 48 -2 -39 -18 -23 -35 70 -16 -34 51 -15 -7 -1 -20 -3 63 -44 -37 55 -14 57 -19 59 -59 -58 62 -62 -41 -36 -9 67 -67 -69 -8 -30 -31
right_child=1 7 3 5 9 11 69 14 -10 10 12 -13 54 27 25 16 17 56 49 -21 21 40 28 26 -26 -27 -28 -29 29 71 31 -33 44 41 64 53 -38 38 -40 45 -42 -43 52 -45 -46 -47 -48 -49 -50 -51 -52 -53 -54 -55 -56 -57 60 58 -60 -61 61 -63 -64 -65 -66 66 -68 68 -70 -71 -72 -73
leaf_value=-0.021807153783855077 0.042922662392405594 -0.0071721498860677366 -0.093742127239085621 -0.099880190523796708 0.018031987442219823 0 -0.098543014278724292 0.012220673886164811 0.023359030381407936 -0.11307706392284275 -0.069605329879800351 0.027624160891434695 -0.10766979217848138 -0.022342259959448194 -0.083322133165497553 0.043203118220196061 0.0067803972669184132 0.030079248634176294 0.035930788912363766 -0.11372288475461627 -0.11595859225749762 -0.053720957519597629 -0.014037782402339397 0.032929196692927216 -0.023884886266042255 0.019944007015126088 -0.038428375364100868 -0.069103761329849037 -0.091120737233102767 0.055869441030601312 -0.0015805308114741491 0.033398457437806672 -0.083031530099776152 -0.082972601704618343 -0.044825308675580586 0.016257254714516067 0.00132148427431871 -0.079127407158836038 0.055842659877103136 -0.099693295369508952 -0.09709497517237986 0.01039231784885894 0.025551407303625585 0 0.020642068459885678 0.0099026835798719307 0.039550821774830755 -0.11187802070632859 -0.089315655034570979 -0.0086128358136506652 -0.083439460050134126 0.0024909750783028086 -0.03842790978570957 -0.036407085536370579 0.0029333958827320351 -0.0089505310899004407 0.0038323850239694972 -0.063163958756117425 -0.0048753685604508035 0.01152000254129181 -0.054956694603314107 0.025359842574456396 0.02042498238627987 0 0.025728561074653135 0.016702378583180858 0.011682644775332091 -0.095173281053993308 0 0.0037032317659217223 -0.0010087065271630333 0.0046909059668102425
leaf_weight=1.4323037760332198 5.3652939181774846 1.0648475675843649 21.117903414182365 0.84505612496287241 1.9197307904250909 0.35997263574972649 1.05906401341781 0.91830027708783779 0.52734561124816437 3.8272856180556092 1.2337899203412233 0.43809137772768725 1.5401421072892851 0.97416130732744921 2.7690374711528416 2.9846083824522784 0.60214795870706694 0.86025546863675373 9.8649109313264471 0.98758235014975149 26.913086076732725 6.5060812351293889 4.0494016022421473 6.5028917044401169 1.4596211109310386 0.74803739972412575 1.0511010037735102 0.38503440935164679 0.78491225047036806 1.1839999575167892 3.7018964588642103 2.899654908105731 2.4959468659944837 4.0719686304219067 0.68254769407212623 2.3432621667161584 0.60602836729958731 0.5656463736668228 0.31130078062415123 3.3175222929567107 10.373810244724153 0.39010624866932619 1.6777997217141094 0.67491560522466887 0.21477317996323098 0.31980419065803278 3.7344333003275096 4.0075377728790045 9.2074969224631769 1.9409614242613304 2.5780271226540208 0.29718173667788494 1.0058310152962802 1.7431143275462089 0.29776892019435752 0.60469745891168702 9.0658165356144291 4.8572294232435507 3.4413445610553026 0.54345274250954378 2.8378280918113883 0.79782954975962628 0.3767400113865732 0.23939236346632231 0.72611014870926738 0.3633681642822929 0.54772474290803064 1.301540066488087 0.40823178738355625 0.17659708950668562 0.59026298951357603 3.0309907640330493
leaf_count=173 194 63 3032 121 85 22 168 44 24 500 134 12 111 51 170 100 31 26 312 86 4626 769 185 207 116 22 55 36 87 31 132 105 223 334 93 84 58 94 6 254 1531 15 80 24 6 12 131 567 1465 75 243 11 71 91 14 34 340 305 146 20 151 23 11 8 54 17 21 108 24 15 29 112
internal_value=-0.0510261 -0.0329796 -0.0501158 -0.056604 -0.0736992 -0.0358356 0.00888016 -0.0130218 -0.0956048 -0.0453242 -0.0545464 -0.0897121 -0.0281454 -0.00573497 -0.00953815 -0.00617352 -0.0173717 -0.0259587 0.00989009 -0.00795072 -0.0969493 -0.103904 -0.0249153 0.00461148 -0.0925917 -0.0509813 0.0210251 0.0127536 -0.0208799 -3.46478e-05 -0.0300973 -0.0122827 -0.0343416 -0.0476819 -0.0701445 0.0150878 -0.0769721 0.0317503 -0.0251656 -0.0653239 -0.0822331 -0.0736885 -0.0254977 -0.0680407 -0.0717794 -0.0764181 0.0251194 -0.103743 -0.0817351 0.0281914 -0.0651298 -0.0849098 0 -0.00640152 -0.0757991 -0.0873021 -0.0165474 -0.0294466 -0.0367595 -0.0545895 -0.00606271 -0.0278169 -0.0435995 -0.0928948 -0.00822359 -0.0278673 -0.0431951 -0.0591037 -0.0775013 -0.0837364 -0.0638029 0.0235751
internal_weight=199.644 142.67 76.3207 68.8428 37.0946 31.7482 7.4779 66.349 56.9748 15.9767 14.0569 4.8056 8.77003 6.32742 62.7061 58.5141 34.6275 27.5565 23.8866 12.0807 56.4475 43.793 26.9426 11.0932 5.28691 4.19199 7.55399 5.09363 26.0975 8.2738 17.8237 9.31227 6.41262 8.51148 12.6545 7.07098 11.2458 6.24224 0.876947 4.77605 16.8799 4.46207 4.05881 3.44395 2.71072 4.1739 4.70859 4.36751 10.6398 11.8059 3.64287 3.8541 2.68363 4.08638 2.44261 2.14484 22.7805 9.70228 8.84203 5.40068 13.0782 4.0124 3.21457 3.55691 1.40866 3.53917 2.62086 2.07314 1.70977 1.23566 1.37518 4.21499
internal_count=18730 9937 6853 6376 4244 2132 477 3084 8793 1212 1127 601 511 352 2778 2562 1613 1338 949 562 8769 6926 1531 476 616 216 262 218 1410 410 1000 466 361 534 1843 275 1696 294 100 316 2300 349 267 194 229 285 182 589 1638 387 306 273 151 175 159 145 1022 497 471 325 525 185 162 262 147 214 170 149 132 183 116 143
is_linear=0
shrinkage=0.078106


Tree=7
num_leaves=73
num_cat=0
split_feature=15 28 23 0 22 12 14 20 23 0 20 23 15 15 20 10 13 23 10 16 2 23 22 28 27 22 0 26 15 12 0 20 12 23 12 26 23 14 13 15 10 2 20 0 2 12 16 2 18 24 1 16 22 14 10 24 22 1 24 23 2 22 15 26 1 27 2 16 27 28 12 14
split_gain=19.0568 9.65692 3.15263 3.06276 3.24477 2.77381 1.79057 1.53057 1.38471 2.14653 1.34195 1.28184 2.92825 1.26747 1.24704 1.15727 1.07611 2.45306 1.80588 1.49581 1.33727 1.31678 1.36926 1.03218 1.00371 1.08277 0.922907 0.920292 0.873544 0.855048 0.820776 0.975259 1.08081 0.947383 0.817672 1.01569 0.813992 0.786077 0.777668 0.766158 0.689346 0.687801 0.643835 0.699781 0.638153 0.618124 0.60424 0.591645 0.591304 0.686208 0.573098 0.561984 0.546842 0.520105 0.515085 0.498189 0.496011 0.484681 0.478427 0.477327 0.463731 0.446222 0.438757 0.436123 0.425733 0.417432 0.416716 0.466241 0.415781 0.411379 0.420617 0.409261
threshold=100.27250000000002 0.11150000000000002 1.5000000000000002 1.0000000180025095e-35 4.402000000000001 26.500000000000004 3.2700000000000005 0.64750000000000008 8.5000000000000018 1.5000000000000002 0.39950000000000008 20.500000000000004 204.12850000000003 70.082000000000008 0.37150000000000005 0.41550000000000004 282.23550000000006 15.500000000000002 0.27250000000000008 857.47800000000018 1.0000000180025095e-35 6.5000000000000009 3.9340000000000006 0.075500000000000012 12.505500000000001 5.3040000000000012 1.0000000180025095e-35 7.2625000000000002 60.421000000000006 52.500000000000007 3.5000000000000004 0.5395000000000002 187.50000000000003 7.5000000000000009 260.50000000000006 8.3410000000000029 25.500000000000004 86.015500000000017 216.79900000000001 485.53600000000006 0.56650000000000011 1.5000000000000002 0.49050000000000005 6.5000000000000009 1.0000000180025095e-35 50.500000000000007 1024.1170000000002 1.5000000000000002 3.9385000000000008 5.5000000000000009 5.5000000000000009 684.09500000000014 4.4385000000000003 86.827500000000015 0.18250000000000002 1.0000000180025095e-35 3.8765000000000005 1.0000000180025095e-35 1.5000000000000002 45.500000000000007 1.5000000000000002 2.5165000000000002 197.80050000000003 5.9530000000000003 1.5000000000000002 29.441000000000006 1.0000000180025095e-35 1061.7350000000004 4.8595000000000015 0.018500000000000003 63.500000000000007 93.384500000000017
decision_type=2 2 2 2 2 2 2 2 2 2 2 2 2 2 2 2 2 2 2 2 2 2 2 2 2 2 2 2 2 2 2 2 2 2 2 2 2 2 2 2 2 2 2 2 2 2 2 2 2 2 2 2 2 2 2 2 2 2 2 2 2 2 2 2 2 2 2 2 2 2 2 2
left_child=1 2 6 4 7 13 -1 14 10 -10 24 16 -13 41 44 53 17 18 20 -20 21 45 62 66 25 29 47 -24 -28 -7 31 55 33 -33 35 -32 57 56 -25 42 -19 -4 65 -44 -2 -5 -40 -12 49 -34 -16 -11 -30 -6 -29 -18 -22 60 69 -41 -14 -3 -23 -58 -63 -38 67 -21 -8 -9 -71 -35
right_child=3 61 5 11 15 8 68 58 9 51 26 12 36 -15 50 -17 30 40 19 23 37 22 27 38 -26 -27 28 54 52 -31 34 32 48 71 -36 -37 39 -39 46 59 -42 -43 43 -45 -46 -47 -48 -49 -50 -51 -52 -53 -54 -55 -56 -57 63 -59 -60 -61 -62 64 -64 -65 -66 -67 -68 -69 -70 70 -72 -73
leaf_value=-0.071130094596621105 0.01485105229336337 0 -0.096729848943563429 0.01380824386335109 -0.070330622701683373 -0.060563166191857171 0.041358274654069556 0.017401298419346952 -0.10394518828308105 0.013491427740819184 -0.09427150200171612 -0.11324807979312206 -0.058035296386189025 0.036952783955545909 -0.1124900728012062 0.034031835928572104 -0.009040094881623972 -0.1050457066243503 0.053852562532654219 -0.046888452556449085 0.012646994365016451 -0.075223503123233101 0.033741057540593457 -0.062340714269458183 0.061077843661678961 0.053100641452113836 -0.056205513055453585 -0.069481872336317918 0.053254734354728835 -0.0018264771233395954 0.012648723028693529 -0.061734391869432158 -0.061219640136261376 0.029890669906431407 0.01718999781484027 -0.088050872171545266 0.015476609099087742 0.0071476519257772783 0.032725795745245784 0.018375547120456692 -0.015134331394768387 0.009404034998724109 -0.10004286933097725 0.015141735429719144 -0.067677183097850827 -0.086166894212855963 -0.021224738355448466 0 0.0010672918813272147 0.016095274079522204 0.0083703716492808649 -0.059155603771107075 -0.027050092164648851 0 0.0060665380477744673 0.036455842462607087 0 0.01862221461541539 0.030184080366302667 -0.050935963189574357 0.0069008741069898219 -0.087699870421398332 0.013107365762752109 -0.075443079656466766 -0.034589404772719053 -0.042176884034987538 0.030243566262421338 0.015927384358203737 -0.0095727588069814632 0.0096135796210428306 -0.078831297947499337 -0.0063216865486389173
leaf_weight=0.82048437325283785 1.0010485593229512 0.34160247631370921 6.5050426330417421 0.27211781078949826 0.94789202464744393 1.7764276387169973 4.8174780453555286 0.33525124238803961 2.7343588313087812 2.0721646538004284 1.8575561633333557 1.8468865533359338 0.84435386210679819 0.24370985338464368 5.4361985516734421 2.7382474560290575 1.4073266359046162 1.7829176024533802 3.3517726026475456 0.75244463188573574 0.28401920851319928 1.0634543201886097 5.8362799272872508 1.7500996049493549 1.1586802010424424 1.127495501656085 0.92948774108663235 0.56333179818466284 1.0364908576011655 5.6744918674230576 0.69728548638522614 0.51597785763442416 2.8070213454775508 7.3068998814560455 1.1888521881774066 1.3467747299000619 0.94658362958580289 0.95389364520087827 1.3874281756579874 2.0334552759304647 1.0535150384530423 0.24224628973752249 1.5802385993301866 0.19468247517943371 0.56740591349080194 1.2052889042533932 3.8659885469824076 0.47501217201352108 2.4929124815389514 0.608507765457034 0.12267948687076558 0.47962218336760987 0.42814006842672814 1.2841382310725746 0.94678428722545505 8.6880218135192973 0.61055316543206561 4.4529656898230314 0.68622433440759767 0.41680292598903168 1.0812996737658975 54.066647570580244 0.20866920985281456 4.7258964604698122 1.9231348601169873 1.3385179815813897 5.0913869854994118 1.4775835382752118 0.87696691323071707 0.23591119376942515 0.73137935204431415 2.1145522361621261
leaf_count=138 71 45 1224 15 107 282 181 12 451 90 321 201 56 13 813 104 82 161 102 46 11 102 210 111 54 29 115 40 40 209 22 52 152 245 41 102 52 44 48 72 58 17 142 5 83 128 177 37 92 19 3 39 38 77 39 303 34 170 21 25 46 9883 6 329 130 110 164 49 59 16 77 88
internal_value=-0.0401626 -0.065961 -0.0318357 -0.015662 -0.048866 -0.0436293 0.0156397 -0.0756159 -0.0273425 -0.0604283 -0.0136732 -0.00963183 -0.0302213 -0.0851437 -0.0918773 0.00127637 -0.00484119 -0.013629 -0.00727833 0.00984563 -0.025514 -0.00655482 0.00560033 -0.00129532 0.00279677 -0.00688 -0.0461214 0.0196402 -0.00730182 -0.01873 0.00623663 0.0110837 -0.000844429 0.0144423 -0.0284005 -0.0552998 -0.0150022 -0.051974 -0.0223958 -0.0336914 -0.0789354 -0.0919731 -0.0530132 -0.0848454 -0.0202043 -0.0662672 -0.00488899 -0.0775306 -0.0265831 -0.0460061 -0.10868 -0.0046432 0.0265633 -0.0362491 -0.0281894 0.0295772 -0.0625813 0.00423995 -0.00990619 0 -0.0245784 -0.0856691 -0.0583085 -0.0679723 -0.0862087 -0.0178115 0.0184081 -0.00734863 0.0326525 -0.0358168 -0.0573295 0.021369
internal_weight=184.767 89.5872 33.2559 95.1797 14.0864 26.7409 6.51493 9.1161 19.7499 5.28615 14.4638 81.0933 14.7358 6.991 7.12733 4.97028 66.3576 37.1834 34.347 17.6767 16.6703 10.0959 8.61852 14.3249 9.7371 8.57842 4.72669 7.3464 2.39412 7.45092 29.1741 25.9412 15.8459 9.93743 3.23291 2.04406 12.8889 6.57436 7.00352 6.51028 2.83643 6.74729 4.06002 1.77492 1.56845 1.47741 5.25342 2.33257 5.90844 3.41553 5.55888 2.55179 1.46463 2.23203 1.51012 10.0953 5.62047 6.37862 1.98877 2.45026 1.92565 56.3314 1.27212 5.33645 55.9898 2.2851 7.32142 2.23003 5.69444 1.30254 0.967291 9.42145
internal_count=18730 13395 3337 5335 1384 2959 378 1096 1705 580 1125 3951 879 1254 970 288 3072 1874 1655 697 958 540 397 595 574 520 551 289 193 491 1198 1033 648 385 165 124 678 418 336 406 219 1241 309 147 154 143 225 358 263 171 816 129 78 184 79 385 374 272 126 97 102 10058 108 363 10013 162 259 95 240 105 93 333
is_linear=0
shrinkage=0.078106


Tree=8
num_leaves=73
num_cat=0
split_feature=5 28 13 21 21 27 3 23 14 23 10 6 0 0 6 23 6 11 22 10 17 3 27 14 6 17 5 2 6 9 5 23 0 22 26 22 23 27 13 9 23 22 9 0 5 22 13 13 23 10 0 11 9 22 27 27 9 28 26 17 22 11 14 23 6 2 28 22 22 21 3 11
split_gain=14.576 3.97616 4.81223 2.29032 2.14034 1.71336 1.83101 1.65942 2.12504 1.61721 1.47912 1.35437 2.43197 1.29364 1.24654 1.35138 2.54744 1.15749 2.02636 1.07819 1.22801 1.05935 0.946513 0.907818 0.829684 1.13506 1.13091 1.13087 0.860445 1.43621 0.908697 0.973318 0.81393 0.747803 0.74319 0.726975 1.30148 0.660074 0.71412 0.660866 0.659694 0.653115 0.650449 0.647413 0.850763 0.676211 0.633742 0.630195 0.616 0.605702 0.598413 0.563838 0.606391 0.549007 0.543676 0.51002 0.509054 0.518185 0.503285 0.474715 0.42402 0.423505 0.423356 0.402891 0.401875 0.39914 0.396863 0.37671 0.373639 0.494233 0.483887 0.372267
threshold=1.5000000000000002 0.16050000000000003 244.10800000000003 56.962500000000013 17.839500000000005 24.263000000000002 1.5000000000000002 1.5000000000000002 24.876000000000001 19.500000000000004 0.063500000000000015 5.5000000000000009 1.5000000000000002 3.5000000000000004 4.5000000000000009 3.5000000000000004 1.5000000000000002 0.0015000000000000002 3.6185000000000005 0.24950000000000003 68.307500000000019 1.5000000000000002 12.821000000000003 86.015500000000017 3.5000000000000004 59.418000000000006 5.5000000000000009 3.5000000000000004 2.5000000000000004 22.608000000000004 4.5000000000000009 8.5000000000000018 1.0000000180025095e-35 3.6640000000000001 3.4005000000000005 4.5840000000000005 11.500000000000002 5.5105000000000013 389.14700000000005 4.7100000000000009 15.500000000000002 4.5355000000000008 868.97600000000011 2.5000000000000004 13.500000000000002 4.1185000000000009 285.84800000000007 7.2570000000000006 10.500000000000002 0.48850000000000005 2.5000000000000004 0.0035000000000000005 5.3850000000000007 4.3760000000000003 15.365000000000002 29.441000000000006 70.345500000000015 0.12650000000000003 6.9585000000000008 16.324500000000004 4.831500000000001 0.018500000000000003 53.916000000000004 17.500000000000004 5.5000000000000009 2.5000000000000004 0.37550000000000006 4.6020000000000012 4.4125000000000005 44.669000000000004 2.5000000000000004 0.94150000000000011
decision_type=2 2 2 2 2 2 2 2 2 2 2 2 2 2 2 2 2 2 2 2 2 2 2 2 2 2 2 2 2 2 2 2 2 2 2 2 2 2 2 2 2 2 2 2 2 2 2 2 2 2 2 2 2 2 2 2 2 2 2 2 2 2 2 2 2 2 2 2 2 2 2 2
left_child=14 3 42 4 10 6 7 -6 33 68 -2 12 67 35 15 16 17 -1 34 20 47 -13 32 -17 28 26 -26 62 29 49 54 -32 -21 -9 -19 -8 -37 -12 39 -39 -30 -22 -3 44 51 -45 50 -5 -16 -10 -24 -11 -53 -14 61 -50 -25 -58 -56 -44 66 -31 -27 -15 -47 -23 -18 -7 69 -4 -71 -49
right_child=1 2 9 19 5 11 13 8 24 43 37 21 53 63 48 23 60 18 -20 22 41 65 46 56 25 27 -28 -29 40 30 31 -33 -34 -35 -36 36 -38 38 -40 -41 -42 -43 59 45 -46 64 -48 71 55 -51 -52 52 -54 -55 58 -57 57 -59 -60 -61 -62 -63 -64 -65 -66 -67 -68 -69 -70 70 -72 -73
leaf_value=-0.09249433682654129 0.037668185819980722 -0.069779289055737395 0.0013860952754163839 0.010935209887114212 0.035698813907992122 -0.10113627166743917 0.039032490179931628 0.0030239443754993202 -0.087135415737192481 0.0071084805562077287 0.018860273708674796 0.049017555273249178 0.0022652888195243796 0.0039012848743719573 0.040927518473325396 -0.085293478600693903 0.069884267725254454 0.065721076504620987 -0.064181455919469846 -0.040508660249678724 -0.071270570859719745 -0.050345164650533715 -0.088007996809021979 0.0078384338316140993 -0.041428655599123634 0 0.041356247563244714 0.027746703792901384 0.029330799503175142 -0.040285640842021048 0.020796421807857381 -0.075694259836015493 0.048310606780189794 -0.083582504572080885 -0.032288322673351542 0.030699998549900263 -0.044678992921583269 0.01917070882959639 0 -0.10257770119156644 -0.026935697116425138 0.0084550606990464617 -0.046442155727858168 0.016198478474760122 0.021452111263413506 0 0.019565411850191759 -0.11713884983197945 -0.067830147194747489 -0.0022125066468161106 0.0040735091987351476 0 -0.092297853681179154 -0.069468765996463538 0.042687366781708709 0.021875835091812831 0.014520457582995821 -0.083441873989521506 0.0023049370344519217 0.026287287379977695 -0.014495959047902724 0.0016799757195226648 -0.11547269993762932 -0.075172038007534817 -0.072255884921825858 0.016555479202985151 -0.012621895141745988 0 0.012832164894166227 -0.064960933987830247 0.0076565681024814642 -0.011989212156122123
leaf_weight=3.8810214309487474 0.5956262624822547 17.975793586811054 5.1192309621255871 0.15846877242438351 5.1013523261062792 2.903610787587239 13.268952723825356 0.60497533716261331 1.4099494284018903 0.32313957135192994 0.22797323227860067 1.7804969036951663 4.3583369590342045 0.41682057036086806 0.70597272343002149 29.07007526373491 1.0723627610132087 1.1051677553914485 2.9451200184412301 0.5231995482463393 0.49070398602634702 1.1585931733716277 1.2076250496320429 1.2006556305568659 1.7662916339468204 0.17695926316082466 1.4877702202647922 0.27712906897068013 7.7491478221490997 1.4175456995144502 0.68123292690142934 1.3943442460149524 1.609778859419748 2.5989648245740682 0.3387028258293866 3.57295545679517 1.7555780583061276 0.10852166218683201 0.61799229821190227 2.8146492138039321 1.1067745299078522 1.695403284858912 0.63968029688112327 1.9137415499426427 0.42146159894764412 0.93205218063667394 0.41904845274984825 2.3467534128576522 0.63377349032089114 0.90476745087653387 0.41894120164215554 0.39765747543424401 2.9936634723562747 0.35217309836298216 3.333190797828137 0.28385336883366108 0.22912905155681063 0.67039645067416131 4.4296726202592254 0.73788647772744298 0.49656183947809029 6.7430816334672272 1.2187732043676076 0.61782888136804104 0.89572048978880048 0.47353918896988023 0.21734808920882631 0.17656015325337637 8.4535858351737243 1.2153919734992085 0.58713293913751829 0.4340939363464712
leaf_count=894 50 2837 266 16 192 504 500 38 118 18 23 60 179 16 52 6513 88 95 566 83 59 134 127 115 125 7 49 6 295 153 26 83 54 457 70 172 108 3 36 518 49 76 126 76 13 40 16 381 112 39 17 18 382 25 111 11 17 130 170 50 87 286 106 76 58 24 43 7 355 75 19 30
internal_value=-0.031136 -0.017916 -0.0373843 -0.00819485 -0.00363992 -0.000278762 0.00478146 -0.00428289 -0.0101851 -0.012819 -0.0544258 -0.0279101 -0.0453344 0.0242891 -0.0704646 -0.0730869 -0.0442102 -0.0622335 -0.0291521 -0.0440392 -0.0670148 0.0112357 -0.0115407 -0.0815967 -0.00397419 -0.0323797 -0.00194918 -0.0777945 0.00103305 -0.00766674 5.35771e-05 -0.0438911 0.0218173 -0.0674042 0.0382596 0.0294374 0.00371186 -0.0722465 -0.0805642 -0.0949529 0.0209646 -0.0157491 -0.0658311 -0.0407044 -0.061118 -0.013392 -0.0461234 -0.0974572 -0.000349515 -0.0607382 -0.0658246 -0.072749 -0.0815155 -0.00710491 0.00697453 -0.0383375 -0.0232455 -0.0581 0.0214179 -0.00769519 0.0333308 -0.00658055 -0.102794 -0.0477625 -0.0438349 -0.0292251 0.0535564 -0.09511 0.0018317 -0.0109459 -0.0420688 -0.105661
internal_weight=172.362 129.512 42.6061 86.9061 77.6021 73.2374 62.0341 42.4019 37.3006 23.2528 4.36476 11.2033 7.79068 19.6321 42.8501 41.2265 10.0563 8.27001 4.38899 9.30402 5.12542 3.41263 4.17859 31.1703 34.0966 4.92692 3.25406 1.67286 29.1697 20.3138 17.9991 2.07558 2.13298 3.20394 1.44387 18.5975 5.32853 3.76914 3.54116 2.92317 8.85592 2.18611 19.3534 7.87744 4.13592 3.74151 2.04561 2.93932 1.6236 2.31472 1.62657 3.71446 3.39132 4.71051 15.9235 0.917627 2.10018 0.899526 7.76286 1.37757 1.78627 8.16063 1.39573 1.03465 1.82777 1.63213 1.28971 3.08017 15.3753 6.92176 1.80252 2.78085
internal_count=18730 9937 4333 5604 4745 4115 3182 2310 2118 1320 630 933 715 872 8793 8618 1843 1625 731 859 562 218 297 6775 1623 293 174 119 1330 986 829 109 137 495 165 780 280 580 557 521 344 135 3013 605 431 174 160 427 175 157 144 418 400 204 720 123 262 147 281 176 218 439 113 92 98 158 131 511 715 360 94 411
is_linear=0
shrinkage=0.078106


Tree=9
num_leaves=73
num_cat=0
split_feature=19 14 17 20 16 15 12 15 26 26 24 20 10 20 1 10 4 3 24 22 14 3 5 6 17 5 4 10 2 22 22 19 6 15 1 4 22 19 26 16 12 17 15 26 2 19 22 26 5 5 22 10 12 1 16 26 26 22 10 10 10 12 14 16 2 12 15 12 22 17 20 22
split_gain=13.0585 3.86402 2.78168 1.86332 1.71783 2.19393 2.11804 1.71464 1.28223 1.24792 1.48708 1.17726 2.2974 2.18962 1.40433 1.40051 1.00892 1.37753 0.992921 1.16979 0.950621 0.945071 1.15096 1.379 0.938082 0.920938 0.814738 0.883669 0.783097 0.773413 0.74797 0.742559 0.723514 0.757428 0.697267 0.688327 0.680201 0.882935 0.669396 0.649828 0.760386 0.593832 0.58578 0.735541 0.552482 1.57143 0.619917 0.551906 0.739823 0.625977 0.527773 0.525405 0.522023 0.506968 0.50431 0.488724 0.485387 0.477535 0.463531 0.447985 0.443221 0.427339 0.424767 1.10464 0.424246 0.423657 0.422037 0.414728 0.40019 0.381434 0.373841 0.418819
threshold=0.51550000000000018 3.2700000000000005 7.7890000000000006 0.16050000000000003 163.24000000000004 153.56650000000002 178.50000000000003 58.005500000000005 3.5915000000000004 10.870000000000003 1.0000000180025095e-35 0.34950000000000003 0.20350000000000004 0.83950000000000002 1.0000000180025095e-35 0.37750000000000006 15.500000000000002 1.5000000000000002 1.0000000180025095e-35 4.2285000000000013 24.876000000000001 1.5000000000000002 3.5000000000000004 2.5000000000000004 59.418000000000006 5.5000000000000009 10.500000000000002 0.26250000000000007 1.0000000180025095e-35 4.5355000000000008 4.2015000000000011 0.45850000000000007 4.5000000000000009 231.89450000000002 1.0000000180025095e-35 4.5000000000000009 4.6525000000000007 0.43350000000000005 2.9465000000000008 233.77700000000002 27.500000000000004 22.013500000000004 44.721500000000013 7.0845000000000011 2.5000000000000004 0.44850000000000007 4.0385000000000009 7.3385000000000007 2.5000000000000004 5.5000000000000009 4.1645000000000012 0.20750000000000002 72.500000000000014 1.0000000180025095e-35 800.54950000000019 9.4365000000000006 2.6195000000000008 4.5570000000000013 0.038500000000000006 0.032500000000000008 0.11450000000000002 202.50000000000003 46.217000000000006 1003.9035 1.5000000000000002 160.50000000000003 188.73650000000001 230.50000000000003 3.9240000000000004 26.018000000000004 0.44150000000000006 4.644000000000001
decision_type=2 2 2 2 2 2 2 2 2 2 2 2 2 2 2 2 2 2 2 2 2 2 2 2 2 2 2 2 2 2 2 2 2 2 2 2 2 2 2 2 2 2 2 2 2 2 2 2 2 2 2 2 2 2 2 2 2 2 2 2 2 2 2 2 2 2 2 2 2 2 2 2
left_child=1 -1 3 18 35 6 11 -2 50 21 41 15 14 20 -13 42 17 -12 19 31 38 22 28 26 57 34 30 29 -7 59 -24 -3 44 -34 -10 56 52 -38 -14 40 -20 -11 -6 -44 62 -46 -47 48 70 69 -9 -19 -5 60 -15 -17 58 -25 -4 -28 -26 -43 63 -23 -32 -64 -29 -67 -30 -50 -22 -72
right_child=7 2 4 36 5 9 -8 8 25 10 16 12 13 54 -16 55 -18 51 39 -21 47 32 23 24 53 -27 27 66 68 -31 64 -33 33 -35 -36 -37 37 -39 -40 -41 -42 61 43 -45 45 46 -48 -49 49 -51 -52 -53 -54 -55 -56 -57 -58 -59 -60 -61 -62 -63 65 -65 -66 67 -68 -69 -70 -71 71 -73
leaf_value=-0.084796994245830773 -0.086068687492981535 -0.066312632547248077 -0.015649542857567807 -0.10357626430259578 -0.0080339027620223401 0.035285567236757714 -0.086596518359382618 0.064011816736364552 -0.067429291612496681 0.011311707005135318 0.02082160741452414 -0.080011247252213882 0.023765952556113218 0.060069069195913274 -0.0034054561140877048 -0.086495123084570094 0.0059395417442759182 0 -0.046110515427973307 0.065274422196545848 0.00028707957555557643 0.033310941032894649 0.034184237122675189 0.026989837529073302 0 0.024365002276243643 0 -0.042089623385324376 0.023723601286027601 -0.022641971579969531 0.006763231640621206 0.022320132894057858 -0.072020837487706699 0.0080899381039712982 -0.0061798262592230252 -0.037293350867155357 0.020530985659921366 -0.075283690112137563 -0.078554335283800888 -0.083260074761277503 0.053316376292854344 0 0.036084650486308829 -0.027632475109617197 0.032722584994562882 0.015271606624930651 -0.077989790773828213 -0.04038902910832292 -0.018659303636717899 -0.034725163165889458 -0.03117033490299698 -0.081684969465796703 0.0057006949421731876 -0.0047541147915292062 -0.017644104894205783 0.0085371780070879477 -0.031143673818119794 -0.034655994054520411 0.044296184525401877 -0.11458579898195238 -0.089841317639029694 -0.097086606828022448 0.045848640821870575 -0.056701360580446794 -0.075695820785682516 0.0040337790037780494 0.0074037947688557169 0.036015489447069719 -0.020243386184371919 0.037173762254765888 -0.074764294812242851 0.012451914841177218
leaf_weight=4.0991532066836944 18.354746084194634 0.77199963526800119 0.5713447746820729 3.5681026375386868 6.5141455631237459 5.3216331633739191 2.7712193038314572 0.6427197135053565 7.1962080847006256 0.26476670266129021 1.29358774377033 6.0824130724649894 0.20261245011351947 2.3946597906760867 2.0955029926262796 1.0419818069785822 8.5085701886564475 0.52515524066984687 0.66646585147827886 1.2376435638871042 0.87421151576563572 1.6197619633749227 1.4272043670061996 6.2916617975570244 0.53282707929611184 0.63025021227076727 0.16211298340931612 1.5993497781455519 1.4197078580036757 1.5707433302886782 0.411644504405558 0.75414294260554016 0.76338045694865231 1.5194475993048397 1.6303899565245954 0.55412547569721926 0.9177324636839328 0.67402474861592054 2.1688006152398884 1.0243017682805655 0.45140831754542887 0.31258820323273573 5.2427037360612303 0.98662652843631793 2.2888448969461019 0.3315289607271551 1.3355290829204021 2.6363521134480834 0.54240793408825982 0.80969487386755634 0.18295372161082923 2.2787462680134922 0.15969417989253987 3.4844674444757402 0.33643853338435281 0.23704133997671295 0.307219655252993 0.46725360304117192 6.6039843934122473 1.8565871678292749 0.66191072203218937 1.8547126459889112 5.9831422688439515 1.019468114711344 0.48103658435866237 6.454810608411206 1.7585859368555246 4.1887293106410652 3.5609863183926791 3.7289571189321578 1.0301841541659085 0.20178312994539727
leaf_count=936 5024 209 82 966 420 200 354 50 1514 14 63 1201 18 111 175 227 412 39 157 114 90 54 49 239 23 33 6 82 52 116 16 115 87 71 143 116 114 185 419 244 36 19 371 107 85 10 108 227 56 64 53 386 13 169 35 19 62 28 388 185 60 328 186 60 49 281 76 151 179 209 177 13
internal_value=-0.0237255 -0.0133382 -0.0107972 -0.0492129 -0.00732202 -0.00989301 -0.0244805 -0.0712718 -0.0422495 -0.00160661 -0.0213457 -0.0188698 -0.0295644 -0.010388 -0.0619643 -0.000608504 -0.00914974 -0.0392941 -0.0117669 0.0173525 -0.0249155 0.00367604 -0.00535675 -0.0159871 0.00192056 -0.0506923 -0.0377478 -0.0505238 0.0153842 -0.0761113 0.000591363 -0.0245019 0.0147496 -0.0235909 -0.0573522 0.0265958 -0.079783 -0.0245678 -0.0660342 -0.0480268 0 -0.0729372 0.00766006 0.0242684 0.0190398 -0.0061567 -0.0578418 -0.0123986 0 0.0155202 0.0359267 -0.0676156 -0.0976882 -0.0234284 0.0480223 -0.0682652 0.0335215 0.02043 0.0383578 -0.105412 -0.0604304 -0.0851724 0.0244655 -0.00277402 -0.0436151 0.0290225 -0.0168771 0.0178628 -0.00604683 0.0281347 -0.0357779 -0.0581019
internal_weight=162.447 133.81 129.71 10.2255 119.485 111.448 39.8977 28.6373 10.2825 71.5505 15.0381 37.1265 23.104 14.9261 8.17792 14.0225 12.6061 4.09749 4.90596 2.76379 12.195 56.5124 31.0077 20.7054 11.4381 9.45685 9.26726 6.94738 10.3023 3.58944 2.31989 1.52614 25.5046 2.28283 8.8266 8.03667 5.31955 1.59176 2.37141 2.14218 1.11787 2.43207 12.7435 6.22933 23.2218 3.9559 1.66706 9.82359 7.18724 5.08106 0.825673 2.8039 3.7278 4.67921 2.7311 1.27902 7.48255 6.75892 7.17533 2.0187 1.19474 2.1673 19.2659 2.63923 0.892681 16.6267 3.35794 10.6435 4.98069 4.27137 2.10618 1.23197
internal_count=18730 11913 10977 2153 8824 8176 4293 6817 1793 3883 1261 3939 2795 1419 1376 1144 900 488 875 438 1273 2622 1529 1098 519 1690 579 465 431 307 114 324 1093 158 1657 648 1278 299 437 437 193 361 898 478 935 203 118 836 609 329 103 425 979 252 146 246 532 267 470 191 83 347 732 114 65 618 158 432 231 265 280 190
is_linear=0
shrinkage=0.078106


Tree=10
num_leaves=73
num_cat=0
split_feature=5 0 27 3 10 22 21 21 12 23 11 13 4 4 18 4 12 10 23 9 23 16 3 5 9 3 23 4 16 27 27 11 21 20 9 13 20 10 13 5 27 26 10 16 12 22 10 11 10 11 11 12 20 9 16 26 21 22 22 0 23 9 20 22 4 22 10 20 9 20 10 23
split_gain=7.26578 1.96894 2.68003 1.67102 1.75044 1.37069 1.28745 1.27052 1.26136 1.30314 1.26115 1.23146 1.1167 1.08691 1.17639 1.08906 0.889522 0.840753 0.810853 0.80481 0.740584 2.30914 0.978408 0.869128 0.808323 0.691143 0.656561 0.654933 0.652244 0.63546 0.610953 0.936742 0.733106 0.712801 0.602007 0.600558 0.591902 0.584208 0.975796 1.36247 0.625931 0.601885 0.634735 0.593506 0.564956 0.767427 0.539413 0.53767 0.563237 0.519822 0.81783 0.776006 0.523712 0.518076 0.503571 0.587518 0.500772 0.813348 0.745454 0.486261 0.481444 0.473585 0.87561 0.469349 0.453684 0.470232 0.483501 0.437814 0.521305 0.46116 0.423365 0.422035
threshold=1.5000000000000002 1.0000000180025095e-35 5.2645000000000008 1.0000000180025095e-35 0.56650000000000011 4.3165000000000004 7.1910000000000016 62.290500000000009 31.500000000000004 3.5000000000000004 0.0075000000000000006 91.58550000000001 7.5000000000000009 4.5000000000000009 3.8515000000000001 3.5000000000000004 54.500000000000007 0.040500000000000008 4.5000000000000009 248.11100000000002 15.500000000000002 1281.1070000000002 2.5000000000000004 8.5000000000000018 10.692500000000001 4.5000000000000009 25.500000000000004 14.500000000000002 97.664500000000018 6.1225000000000014 10.312500000000002 0.13950000000000004 21.113000000000003 0.11150000000000002 1014.3390000000001 448.35050000000007 0.45350000000000007 0.31050000000000005 255.30000000000004 4.5000000000000009 18.038500000000003 6.7590000000000012 0.23050000000000004 903.20100000000014 78.500000000000014 4.1010000000000009 0.075500000000000012 0.92050000000000021 0.33550000000000008 0.066500000000000017 0.92650000000000021 72.500000000000014 0.63050000000000017 491.51900000000006 283.80700000000007 8.4605000000000015 12.148500000000002 4.2945000000000002 4.2215000000000016 3.5000000000000004 16.500000000000004 38.324000000000005 0.26450000000000007 3.9735000000000005 1.5000000000000002 4.1325000000000012 0.19550000000000003 0.58850000000000013 19.756500000000006 0.87550000000000006 0.010500000000000001 13.500000000000002
decision_type=2 2 2 2 2 2 2 2 2 2 2 2 2 2 2 2 2 2 2 2 2 2 2 2 2 2 2 2 2 2 2 2 2 2 2 2 2 2 2 2 2 2 2 2 2 2 2 2 2 2 2 2 2 2 2 2 2 2 2 2 2 2 2 2 2 2 2 2 2 2 2 2
left_child=8 2 7 16 34 -6 -3 17 9 13 19 30 44 14 28 -16 29 -2 -19 56 27 -22 23 35 -25 26 -24 37 -1 46 31 32 -8 -34 70 -23 -26 38 39 41 -39 -13 -43 -41 59 -46 -4 48 -29 51 54 61 -52 -30 -51 -56 57 64 -58 -12 -38 -18 -63 -62 -10 66 -66 -42 -69 -70 -5 -7
right_child=1 6 3 4 5 71 11 -9 10 -11 12 20 -14 -15 15 -17 49 18 -20 -21 21 22 25 24 36 -27 -28 47 53 -31 -32 -33 33 -35 -36 -37 60 40 -40 43 67 42 -44 -45 45 -47 -48 -49 -50 50 52 -53 -54 -55 55 -57 58 -59 -60 -61 63 62 -64 -65 65 -67 -68 68 69 -71 -72 -73
leaf_value=-0.040476105694601028 -0.047503218715097086 -0.069653354657117167 0.057781964332195901 -0.005218064385672367 -0.060360387552796678 -0.020001446139520807 0.018899193877750523 -0.061200608834990532 -0.0056806954546139614 -0.076385985130776851 -0.095604477711347308 0.014628814203805508 0.0009394068535584231 -0.081106738431994507 -0.071887146989033757 0.023598039157536086 0.0095460833581293807 0.043668268477239917 -0.041054360563928527 -0.056699616936256005 -0.0728545347368251 -0.017640076918201342 0.037842116957317512 0.011905119968308939 0.0023505133408984417 -0.025705403940264666 -0.006770494191627929 -0.078343143940754909 0.054291214682995241 -0.075633629326712415 -0.075347693826226123 0.038518346148239929 0.027212347857889077 -0.079573704213548549 0.0015573544370993571 0.02060568453200776 0.0089646508609248169 0.038290522023659748 0.018148337382734268 -0.011301753593224452 0.023702228601488406 -0.06154672019185152 0.0049930954995911232 -0.084631612609294998 -0.060302172429149072 0.033283837134717345 -0.041691655165600541 -0.0023791140987538088 0.017809647804702445 0.01356958134634507 -0.03295557634507313 0.049794322281486489 0.032868677825651754 -0.020542989655776292 -0.083666247414986808 0.0030227859527412028 -0.055146129055157839 -0.02584164605550866 0.020940539359828564 0.010765872960900934 0.0030427109732574669 -0.090695011875024836 0.0064768900873209898 -0.10405489404956474 0.083000709270083392 -0.021479235207271241 -0.010842573012495013 0.024761578009256394 -0.069745805026933907 0.014433832463809094 -0.078552303888915376 0.045921313125497701
leaf_weight=0.43137091887183787 0.44867110322229464 1.3028109010774631 0.27948844525963368 0.70850681257433912 1.2796097213868045 0.44943479821085963 0.64666451327502716 0.74376721144653846 0.59138506976887484 13.551238523097707 3.0284912267234181 8.0282548698596674 1.5460735694505272 1.6278861770406363 2.0335751057136808 0.72995464829727996 3.3113903102930617 6.0713101206347346 0.40888136439025391 1.1084703903179614 2.6684989500790861 5.8355211163871008 6.4834649800322932 0.81213011709041838 0.46482194447889957 1.5481854937970627 2.4708130334038287 0.82722973451018222 1.9647298806812616 1.7210691776126621 1.4232885260134933 0.98141269688494492 0.19712229259312142 1.5817371229641137 0.54108291398733932 3.7665577500592917 0.15639184042811383 7.7999134543351811 16.558171024546027 1.5699428787920617 1.8374626364093276 1.1476395430508994 1.6480760986451057 1.4019802683033047 0.75476781860925235 0.59646441950462759 0.25094839185476303 10.087218163534997 0.26122512761503458 0.35537716071121428 0.76781902695074711 1.6450204278808085 1.5574694529641417 0.41294429986737657 1.6426563283894213 0.45926945190876711 1.2014027358964088 1.0261245120782403 1.1365873580798505 0.12172194337472309 0.1666363151744007 0.59033464500680555 1.0438799189869312 1.6715348858851937 1.7345734823029491 0.12810005457140494 0.20123849040828634 0.50253822025842954 0.99243218894116558 0.28264193143695593 9.1788557057734561 1.7891312371939418
leaf_count=117 80 266 20 151 306 67 93 226 129 4487 831 560 174 474 636 112 110 297 92 302 271 355 238 37 19 77 172 76 260 491 271 63 17 378 72 175 5 322 655 121 88 99 72 133 147 41 70 437 8 15 84 70 66 97 300 43 292 248 186 6 5 40 52 174 170 38 46 18 70 9 1932 69
internal_value=-0.0178249 -0.00870879 -0.0241377 -0.0354451 -0.0542679 -0.0044788 -0.00218617 0.015677 -0.0495671 -0.0618417 -0.0286745 -0.000765393 -0.0538343 -0.031348 -0.0116898 -0.0454171 -0.0148771 0.0273763 0.0356293 -0.00503424 0.00159958 -0.00902441 -0.000469154 -0.0148898 -0.0473352 0.0166878 0.0252739 0.00693923 0.0215543 -0.0559174 -0.037545 -0.0144294 -0.0398453 -0.0628664 -0.0698751 -0.00196133 -0.0674532 0.0114654 0.00546028 -0.00952628 0.0263386 0.00344946 -0.0250786 -0.0530609 -0.0721559 -0.0181644 0.00803075 -0.00939831 -0.0535647 -0.00477876 -0.0236617 0.00882565 0.00783765 0.038579 -0.0520641 -0.0653825 0.00663881 0.0241551 -0.0187768 -0.0894697 -0.0833608 -0.0065892 -0.0370809 -0.0934617 0.0458125 0.0609874 0.0710974 0 -0.025589 -0.0493308 -0.0741397 0.0299428
internal_weight=154.293 120.366 35.244 27.5713 13.9466 3.51818 85.1223 7.67263 33.9271 20.7517 13.1754 83.8195 6.04752 7.20046 5.57257 2.76353 13.6247 6.92886 6.48019 7.12788 78.9893 26.0446 23.3761 12.8736 3.27152 10.5025 8.95428 52.9447 2.80905 2.25151 4.83023 3.40694 2.42552 1.77886 10.4284 9.60208 2.45938 41.7691 30.3541 13.7959 11.415 10.824 2.79572 2.97192 4.50145 1.35123 0.530437 11.1757 1.08845 11.3732 4.78259 6.59063 2.32529 2.37767 2.4573 2.10193 6.01941 3.68142 2.33799 3.15021 1.99456 4.9456 1.63421 1.83817 2.6553 2.06391 1.93581 3.61507 1.77761 1.27507 9.88736 2.23857
internal_count=18730 9937 4653 3958 2597 442 5284 695 8793 6183 2610 5018 1199 1696 1222 748 1361 469 389 1411 4196 1528 1257 770 240 487 410 2668 474 581 822 551 488 395 2155 530 203 2147 1640 985 507 731 171 254 1025 188 90 521 84 780 508 272 150 357 358 343 1109 631 478 837 184 202 92 179 383 254 216 185 97 79 2083 136
is_linear=0
shrinkage=0.078106


Tree=11
num_leaves=73
num_cat=0
split_feature=5 28 13 21 9 23 12 25 21 23 21 28 24 28 11 25 25 26 24 16 21 23 13 18 21 11 26 3 24 16 3 4 18 28 1 4 21 21 18 1 22 21 9 16 22 9 23 13 25 22 25 12 25 25 21 12 21 0 22 5 21 13 28 28 25 18 24 25 18 18 13 22
split_gain=5.12511 1.98655 1.93683 1.20191 1.12224 0.877854 1.18965 1.32099 0.840809 0.801749 0.942975 0.787111 0.767362 0.728476 0.701241 0.90402 0.65829 0.617868 0.590872 0.571256 0.564915 0.827677 0.885305 0.594043 0.578663 0.961277 0.947416 0.844681 0.764152 0.696551 0.66934 0.660561 0.589882 0.562095 0.55726 0.551313 0.817268 0.54253 0.736203 0.512265 0.510273 0.493771 0.495634 0.527654 0.481512 0.442478 0.429734 0.51656 0.426525 0.568739 0.412175 0.41015 0.404805 0.587584 1.11637 0.391303 0.385218 0.384723 0.596658 0.424541 0.998723 0.376703 0.442896 0.374753 0.366359 0.391006 0.365093 0.363361 0.361089 0.491415 0.382314 0.475581
threshold=1.5000000000000002 0.16250000000000003 244.10800000000003 56.962500000000013 386.68850000000003 3.5000000000000004 32.500000000000007 43.296000000000006 47.162500000000009 7.5000000000000009 2.0310000000000001 0.018500000000000003 1.0000000180025095e-35 0.07350000000000001 0.0015000000000000002 44.420000000000009 33.690000000000005 9.5700000000000021 1.5000000000000002 1168.7510000000004 17.839500000000005 6.5000000000000009 389.14700000000005 4.0405000000000006 34.577000000000005 0.97850000000000004 10.553000000000003 1.5000000000000002 3.5000000000000004 533.3225000000001 1.5000000000000002 20.500000000000004 3.8515000000000001 0.12350000000000001 1.0000000180025095e-35 3.5000000000000004 31.907000000000004 15.078500000000002 3.9155000000000002 1.0000000180025095e-35 3.2125000000000004 52.783500000000011 325.74150000000003 1037.0145000000002 4.1420000000000003 868.97600000000011 16.500000000000004 379.39550000000003 44.455000000000005 4.0435000000000008 44.977000000000011 199.50000000000003 55.489000000000004 30.037500000000005 45.805000000000007 201.50000000000003 33.553000000000004 1.0000000180025095e-35 4.3935000000000004 5.5000000000000009 52.291500000000006 115.04550000000002 0.67850000000000021 0.021500000000000002 30.793500000000005 3.8395000000000006 1.5000000000000002 14.415500000000002 3.9785000000000008 3.9315000000000002 408.75900000000007 4.7285000000000013
decision_type=2 2 2 2 2 2 2 2 2 2 2 2 2 2 2 2 2 2 2 2 2 2 2 2 2 2 2 2 2 2 2 2 2 2 2 2 2 2 2 2 2 2 2 2 2 2 2 2 2 2 2 2 2 2 2 2 2 2 2 2 2 2 2 2 2 2 2 2 2 2 2 2
left_child=4 3 45 11 5 8 35 41 14 37 33 51 19 63 15 -1 57 -12 -15 -4 21 -18 40 24 26 -26 28 -28 29 30 39 -29 55 -11 67 36 61 38 -9 -22 -23 42 43 -8 -17 52 68 64 49 -49 -37 -2 53 54 -3 -27 -47 58 -13 -59 -61 62 -7 -5 -48 -66 -56 -6 69 -14 71 -71
right_child=1 2 12 13 34 6 7 9 -10 10 17 16 46 18 -16 44 20 -19 -20 -21 23 22 -24 -25 25 32 27 31 -30 -31 -32 -33 -34 -35 -36 50 -38 -39 -40 -41 -42 -43 -44 -45 -46 56 47 48 -50 -51 -52 -53 -54 -55 66 -57 -58 59 -60 60 -62 -63 -64 -65 65 -67 -68 -69 -70 70 -72 -73
leaf_value=-0.05740259904047193 0.033402182488988422 0.026364561442869344 0.014679580303249918 -0.00056750261239875476 0 -0.081281476776031286 -0.084766181975796787 0.077129081087073711 -0.051557257523565686 -0.04444277717298889 -0.072657548762258994 -0.043490820270274594 0.014547090658279423 -0.051150210801967459 0.039881361512237298 -0.015677544821846634 0.038949058754132071 0.016688169841131008 0.0054059985004698647 -0.059337332808197724 -0.054596348989371581 0.019711195581084168 0.011881968510618518 -0.063959197378554988 -0.030784884658373542 0.0067211404196452045 0.023619144629255105 -0.067305409174893083 -0.029250705424274104 0.033895358533373228 0.043319046209913135 0.015990756653382832 0.021718965817999775 0.038739709734618079 0 -0.041701069041436924 0.013221567036987642 -0.0072790782986317058 -0.023784042018450011 0.00059685270147350877 -0.084156593972533666 0.015412799826830598 0.012713927424833769 0 0.062635361920473517 -0.045451522246311771 0.0052327833504000566 0.039125698581601177 -0.046698319808517304 -0.0094808035802181872 0.032581488127300773 -0.022294437340610498 0.0012703000283564715 -0.062618574522909712 -0.068239767786013483 -0.06390746906900556 0.026948727988616111 0.027548629649215079 0.013466282529433535 0.013361556223138282 -0.058767322134763468 0 0.0064216350900149748 -0.072475635839171576 0.006129843068370373 -0.078754027431419307 -0.014744529931165181 -0.084469320358776689 0.029117967925013147 -0.069857592856607365 0.020100804103778649 0
leaf_weight=1.1816887150052999 6.9357734711375079 1.4940886299591474 0.56327157258056404 0.71272733947262024 0.2280286077875634 7.005691892467441 2.5876495919656004 1.3470116415992381 1.3818048469256607 0.27866643946617875 1.613110978156328 1.4633951233699947 4.7319787377491611 1.0647342789452521 2.2033857454080135 0.57161449408158638 0.43055103532969896 0.35365631990134705 4.3295255249831825 2.0261486675590277 0.79971936903894825 0.10392290353775058 0.78426403622142959 0.51207443396560748 7.4449040633626264 0.61334883840754606 1.0414474850986146 2.0537163524422799 1.7737573971971858 9.3909181097988021 1.5968471879605202 0.48618710786104191 5.0414207812864333 1.4330569102894513 0.60252956813201297 0.49494152306578942 0.50272563635371614 1.1109898176509885 0.30553165404126037 6.3103226607199758 1.8829851683694867 0.29245718778111029 0.25355435977689911 0.48320538923144329 0.57347521721385419 0.28397504682652541 0.43296802137046864 1.8096393093001095 0.6757589520420878 3.8609590379055589 0.53212874825112522 0.53423587512224902 0.85929588880390007 7.8266047448851168 1.9116932926699521 0.58180573862046003 0.92827302147634327 9.9297399458009767 2.3531118854880333 8.9226632581558043 0.9414919759146877 0.43112974846735586 0.21077977772802103 1.9605896919965742 0.23666977882385243 1.0699418575968591 2.0001819774042815 4.9778886258136481 3.7345226595643908 1.002367062494159 0.4811021341010927 0.96184077020734537
leaf_count=385 330 175 32 71 51 2841 782 117 391 86 407 196 194 265 306 163 50 18 244 226 212 2 42 101 524 23 54 495 129 414 83 22 224 210 116 185 118 248 88 228 500 26 35 36 57 83 17 61 76 252 119 37 122 1804 518 68 93 441 171 384 69 131 60 286 13 144 181 1817 144 79 14 44
internal_value=-0.0132187 -0.0056321 -0.0205304 0.00124786 -0.0412921 -0.0328796 -0.0408759 -0.0204101 -0.00521603 0.000751865 -0.0215455 0.00455419 -0.0050116 -0.0265404 0.0109573 -0.016544 0.00162317 -0.0545491 -0.00766393 -0.0418884 -0.00429148 -0.033945 -0.0501256 -0.00132703 7.08297e-05 -0.0123676 0.00760226 -0.0270719 0.014478 0.0195379 0.00276041 -0.0497945 0.00944626 0.017287 -0.0726152 -0.0610827 -0.0676252 0.0308749 0.0552545 -0.00751868 -0.0744572 -0.0556461 -0.0640903 -0.0724711 0.0265153 -0.0414603 0.000520742 -0.0125386 -0.000595516 0.00679664 -0.00161477 0.0279284 -0.0452684 -0.048576 -0.0246103 -0.0320436 0.000198701 0.0119499 -0.00929456 0.0163731 0.00405736 -0.0738923 -0.0779209 -0.0573104 -0.0458722 -0.0628104 -0.0457675 -0.0803007 0.0107013 0 -0.025981 -0.0406703
internal_weight=147.844 116.887 36.8913 79.9962 30.9567 25.1483 19.2363 10.0589 5.91197 6.44202 3.67849 71.9286 21.5872 8.06758 4.53016 2.32678 64.4586 1.96677 5.39426 2.58942 40.8482 3.20172 2.77117 37.6465 37.1344 13.6815 23.4529 3.58135 19.8716 18.0978 8.70689 2.5399 6.23658 1.71172 5.80845 9.1774 8.15033 2.76353 1.65254 7.11004 1.98691 3.61687 3.32441 3.07085 1.14509 15.3041 18.9977 8.08594 6.34636 5.6706 1.02707 7.47001 14.0919 13.2326 5.40596 1.19515 1.21225 23.6104 3.81651 19.7939 9.86416 7.6476 7.21647 2.67332 1.73958 1.30661 3.91188 5.20592 10.9118 7.17729 2.44531 1.96421
internal_count=18730 9937 4272 5665 8793 6809 5507 2053 1302 1174 721 4799 1296 866 911 605 4432 425 509 258 3171 594 544 2577 2476 839 1637 571 1066 937 523 517 315 296 1984 3454 3150 453 205 440 502 879 853 818 220 2976 1038 563 389 313 304 367 2800 2678 874 91 176 1261 367 894 453 3032 2901 357 174 157 699 1868 475 331 137 123
is_linear=0
shrinkage=0.078106


Tree=12
num_leaves=73
num_cat=0
split_feature=19 14 4 22 14 11 17 17 20 11 21 0 19 11 4 4 24 9 22 9 16 16 17 15 26 15 3 21 11 26 17 6 14 21 20 1 26 15 19 25 24 21 22 17 9 4 25 16 22 26 9 3 15 15 19 15 9 9 20 3 17 11 20 19 24 16 17 15 9 22 15 24
split_gain=5.6508 1.94331 1.24865 0.875492 1.31069 0.911252 1.53526 0.837106 1.38936 1.34075 1.64108 0.984745 1.05423 0.776703 0.732838 0.894651 0.675204 0.923521 0.621672 0.617717 0.609733 0.604242 0.593848 0.561675 0.549563 1.04651 0.679842 0.700415 1.13076 1.10961 0.866471 0.617975 0.542411 0.708265 0.536835 0.527069 0.521032 0.478156 0.606741 0.46849 0.459736 0.456196 0.443269 0.660649 0.432464 0.428939 0.41711 0.73736 0.412192 0.407942 0.402703 0.400507 0.4719 0.391022 0.388171 0.403824 0.377514 0.372859 0.734166 0.429882 0.369482 0.35843 0.676221 0.358131 0.420286 0.357085 0.350337 0.348331 0.373591 0.342931 0.408644 0.402812
threshold=0.51450000000000007 3.2700000000000005 2.5000000000000004 4.1260000000000003 68.044000000000025 0.066500000000000017 10.628500000000001 7.7890000000000006 0.16050000000000003 0.012500000000000002 21.113000000000003 1.0000000180025095e-35 0.48450000000000004 0.8045000000000001 18.500000000000004 6.5000000000000009 1.0000000180025095e-35 386.68850000000003 4.6525000000000007 24.356000000000005 144.81050000000002 233.77700000000002 39.116500000000009 47.13750000000001 6.1555000000000009 161.85150000000002 2.5000000000000004 28.268000000000004 0.86850000000000016 8.3410000000000029 52.549500000000009 1.5000000000000002 10.880500000000001 31.052000000000003 0.63350000000000006 1.5000000000000002 3.5765000000000007 278.17950000000002 0.42950000000000005 47.567000000000007 1.5000000000000002 56.962500000000013 4.5040000000000004 69.155500000000018 104.47100000000002 14.500000000000002 35.943000000000005 160.28650000000002 3.9815000000000005 5.3355000000000006 961.63200000000018 1.0000000180025095e-35 60.421000000000006 194.46750000000003 0.49150000000000005 187.85550000000003 377.82300000000004 201.36650000000003 0.7945000000000001 4.5000000000000009 70.988000000000014 0.94150000000000011 0.50650000000000006 0.44050000000000006 1.0000000180025095e-35 425.18800000000005 74.770500000000013 55.590500000000013 2932.4565000000007 4.0995000000000008 71.289500000000018 1.0000000180025095e-35
decision_type=2 2 2 2 2 2 2 2 2 2 2 2 2 2 2 2 2 2 2 2 2 2 2 2 2 2 2 2 2 2 2 2 2 2 2 2 2 2 2 2 2 2 2 2 2 2 2 2 2 2 2 2 2 2 2 2 2 2 2 2 2 2 2 2 2 2 2 2 2 2 2 2
left_child=1 67 32 5 50 6 36 8 16 46 13 12 14 69 15 22 17 48 49 -14 -20 -18 35 -8 51 42 27 -27 37 31 45 41 -2 -34 39 -12 -4 38 -29 -17 -40 -30 60 -44 -35 -31 47 -9 -3 -10 66 -13 -53 -33 -21 -56 65 59 -59 -28 61 62 -26 -48 -65 -25 -5 68 -1 -11 -71 -72
right_child=2 7 3 4 -6 -7 23 9 18 10 11 24 19 -15 -16 34 21 -19 20 54 -22 -23 -24 56 25 26 57 28 29 30 -32 53 33 44 -36 -37 -38 -39 40 -41 -42 -43 43 -45 -46 -47 63 -49 -50 -51 -52 52 -54 -55 55 -57 -58 58 -60 -61 -62 -63 -64 64 -66 -67 -68 -69 -70 70 71 -73
